digraph Tree {
node [shape=box] ;
0 [label="X[1] <= 2.5\ngini = 0.375\nsamples = 21784\nvalue = [16338, 5446]"] ;
1 [label="X[0] <= 1.5\ngini = 0.4425\nsamples = 16338\nvalue = [10940, 5398]"] ;
0 -> 1 [labeldistance=2.5, labelangle=45, headlabel="True"] ;
2 [label="X[1] <= 0.5\ngini = 0.4989\nsamples = 2747\nvalue = [1308, 1439]"] ;
1 -> 2 ;
3 [label="X[0] <= 0.5\ngini = 0.4025\nsamples = 1354\nvalue = [976, 378]"] ;
2 -> 3 ;
4 [label="X[3] <= 30.5\ngini = 0.3068\nsamples = 740\nvalue = [600, 140]"] ;
3 -> 4 ;
5 [label="X[2] <= 24.5\ngini = 0.3179\nsamples = 691\nvalue = [554, 137]"] ;
4 -> 5 ;
6 [label="X[3] <= 24.5\ngini = 0.3556\nsamples = 307\nvalue = [236, 71]"] ;
5 -> 6 ;
7 [label="X[3] <= 23.5\ngini = 0.4334\nsamples = 63\nvalue = [43, 20]"] ;
6 -> 7 ;
8 [label="X[3] <= 15.5\ngini = 0.3841\nsamples = 54\nvalue = [40, 14]"] ;
7 -> 8 ;
9 [label="X[3] <= 13.0\ngini = 0.4664\nsamples = 27\nvalue = [17, 10]"] ;
8 -> 9 ;
10 [label="gini = 0.0\nsamples = 5\nvalue = [5, 0]"] ;
9 -> 10 ;
11 [label="X[2] <= 16.5\ngini = 0.4959\nsamples = 22\nvalue = [12, 10]"] ;
9 -> 11 ;
12 [label="gini = 0.48\nsamples = 10\nvalue = [6, 4]"] ;
11 -> 12 ;
13 [label="X[2] <= 21.0\ngini = 0.5\nsamples = 12\nvalue = [6, 6]"] ;
11 -> 13 ;
14 [label="gini = 0.0\nsamples = 1\nvalue = [0, 1]"] ;
13 -> 14 ;
15 [label="gini = 0.4959\nsamples = 11\nvalue = [6, 5]"] ;
13 -> 15 ;
16 [label="X[2] <= 19.0\ngini = 0.2524\nsamples = 27\nvalue = [23, 4]"] ;
8 -> 16 ;
17 [label="X[2] <= 15.5\ngini = 0.3967\nsamples = 11\nvalue = [8, 3]"] ;
16 -> 17 ;
18 [label="gini = 0.0\nsamples = 3\nvalue = [3, 0]"] ;
17 -> 18 ;
19 [label="X[3] <= 17.5\ngini = 0.4688\nsamples = 8\nvalue = [5, 3]"] ;
17 -> 19 ;
20 [label="gini = 0.5\nsamples = 2\nvalue = [1, 1]"] ;
19 -> 20 ;
21 [label="X[3] <= 19.5\ngini = 0.4444\nsamples = 6\nvalue = [4, 2]"] ;
19 -> 21 ;
22 [label="X[2] <= 17.0\ngini = 0.375\nsamples = 4\nvalue = [3, 1]"] ;
21 -> 22 ;
23 [label="gini = 0.4444\nsamples = 3\nvalue = [2, 1]"] ;
22 -> 23 ;
24 [label="gini = 0.0\nsamples = 1\nvalue = [1, 0]"] ;
22 -> 24 ;
25 [label="gini = 0.5\nsamples = 2\nvalue = [1, 1]"] ;
21 -> 25 ;
26 [label="X[3] <= 16.5\ngini = 0.1172\nsamples = 16\nvalue = [15, 1]"] ;
16 -> 26 ;
27 [label="X[2] <= 22.0\ngini = 0.32\nsamples = 5\nvalue = [4, 1]"] ;
26 -> 27 ;
28 [label="gini = 0.0\nsamples = 4\nvalue = [4, 0]"] ;
27 -> 28 ;
29 [label="gini = 0.0\nsamples = 1\nvalue = [0, 1]"] ;
27 -> 29 ;
30 [label="gini = 0.0\nsamples = 11\nvalue = [11, 0]"] ;
26 -> 30 ;
31 [label="X[2] <= 20.0\ngini = 0.4444\nsamples = 9\nvalue = [3, 6]"] ;
7 -> 31 ;
32 [label="gini = 0.5\nsamples = 4\nvalue = [2, 2]"] ;
31 -> 32 ;
33 [label="X[2] <= 23.5\ngini = 0.32\nsamples = 5\nvalue = [1, 4]"] ;
31 -> 33 ;
34 [label="gini = 0.0\nsamples = 2\nvalue = [0, 2]"] ;
33 -> 34 ;
35 [label="gini = 0.4444\nsamples = 3\nvalue = [1, 2]"] ;
33 -> 35 ;
36 [label="X[2] <= 21.5\ngini = 0.3307\nsamples = 244\nvalue = [193, 51]"] ;
6 -> 36 ;
37 [label="X[3] <= 28.0\ngini = 0.2666\nsamples = 101\nvalue = [85, 16]"] ;
36 -> 37 ;
38 [label="X[3] <= 25.5\ngini = 0.1769\nsamples = 51\nvalue = [46, 5]"] ;
37 -> 38 ;
39 [label="X[2] <= 17.0\ngini = 0.2311\nsamples = 30\nvalue = [26, 4]"] ;
38 -> 39 ;
40 [label="X[2] <= 15.5\ngini = 0.2524\nsamples = 27\nvalue = [23, 4]"] ;
39 -> 40 ;
41 [label="gini = 0.2355\nsamples = 22\nvalue = [19, 3]"] ;
40 -> 41 ;
42 [label="gini = 0.32\nsamples = 5\nvalue = [4, 1]"] ;
40 -> 42 ;
43 [label="gini = 0.0\nsamples = 3\nvalue = [3, 0]"] ;
39 -> 43 ;
44 [label="X[2] <= 17.0\ngini = 0.0907\nsamples = 21\nvalue = [20, 1]"] ;
38 -> 44 ;
45 [label="gini = 0.0\nsamples = 12\nvalue = [12, 0]"] ;
44 -> 45 ;
46 [label="X[3] <= 26.5\ngini = 0.1975\nsamples = 9\nvalue = [8, 1]"] ;
44 -> 46 ;
47 [label="gini = 0.0\nsamples = 4\nvalue = [4, 0]"] ;
46 -> 47 ;
48 [label="X[2] <= 19.0\ngini = 0.32\nsamples = 5\nvalue = [4, 1]"] ;
46 -> 48 ;
49 [label="gini = 0.4444\nsamples = 3\nvalue = [2, 1]"] ;
48 -> 49 ;
50 [label="gini = 0.0\nsamples = 2\nvalue = [2, 0]"] ;
48 -> 50 ;
51 [label="X[3] <= 29.5\ngini = 0.3432\nsamples = 50\nvalue = [39, 11]"] ;
37 -> 51 ;
52 [label="X[2] <= 17.0\ngini = 0.4012\nsamples = 36\nvalue = [26, 10]"] ;
51 -> 52 ;
53 [label="X[2] <= 15.5\ngini = 0.4628\nsamples = 22\nvalue = [14, 8]"] ;
52 -> 53 ;
54 [label="gini = 0.4938\nsamples = 9\nvalue = [5, 4]"] ;
53 -> 54 ;
55 [label="gini = 0.426\nsamples = 13\nvalue = [9, 4]"] ;
53 -> 55 ;
56 [label="X[2] <= 20.5\ngini = 0.2449\nsamples = 14\nvalue = [12, 2]"] ;
52 -> 56 ;
57 [label="gini = 0.0\nsamples = 4\nvalue = [4, 0]"] ;
56 -> 57 ;
58 [label="gini = 0.32\nsamples = 10\nvalue = [8, 2]"] ;
56 -> 58 ;
59 [label="X[2] <= 15.5\ngini = 0.1327\nsamples = 14\nvalue = [13, 1]"] ;
51 -> 59 ;
60 [label="gini = 0.1975\nsamples = 9\nvalue = [8, 1]"] ;
59 -> 60 ;
61 [label="gini = 0.0\nsamples = 5\nvalue = [5, 0]"] ;
59 -> 61 ;
62 [label="X[2] <= 22.5\ngini = 0.3697\nsamples = 143\nvalue = [108, 35]"] ;
36 -> 62 ;
63 [label="X[3] <= 28.0\ngini = 0.4861\nsamples = 12\nvalue = [5, 7]"] ;
62 -> 63 ;
64 [label="X[3] <= 25.5\ngini = 0.375\nsamples = 4\nvalue = [3, 1]"] ;
63 -> 64 ;
65 [label="gini = 0.0\nsamples = 1\nvalue = [0, 1]"] ;
64 -> 65 ;
66 [label="gini = 0.0\nsamples = 3\nvalue = [3, 0]"] ;
64 -> 66 ;
67 [label="X[3] <= 29.5\ngini = 0.375\nsamples = 8\nvalue = [2, 6]"] ;
63 -> 67 ;
68 [label="gini = 0.375\nsamples = 4\nvalue = [1, 3]"] ;
67 -> 68 ;
69 [label="gini = 0.375\nsamples = 4\nvalue = [1, 3]"] ;
67 -> 69 ;
70 [label="X[3] <= 29.5\ngini = 0.3361\nsamples = 131\nvalue = [103, 28]"] ;
62 -> 70 ;
71 [label="X[3] <= 25.5\ngini = 0.3578\nsamples = 120\nvalue = [92, 28]"] ;
70 -> 71 ;
72 [label="gini = 0.2449\nsamples = 7\nvalue = [6, 1]"] ;
71 -> 72 ;
73 [label="X[3] <= 26.5\ngini = 0.3637\nsamples = 113\nvalue = [86, 27]"] ;
71 -> 73 ;
74 [label="gini = 0.3911\nsamples = 30\nvalue = [22, 8]"] ;
73 -> 74 ;
75 [label="X[3] <= 27.5\ngini = 0.353\nsamples = 83\nvalue = [64, 19]"] ;
73 -> 75 ;
76 [label="gini = 0.3412\nsamples = 55\nvalue = [43, 12]"] ;
75 -> 76 ;
77 [label="X[3] <= 28.5\ngini = 0.375\nsamples = 28\nvalue = [21, 7]"] ;
75 -> 77 ;
78 [label="gini = 0.48\nsamples = 5\nvalue = [3, 2]"] ;
77 -> 78 ;
79 [label="gini = 0.3403\nsamples = 23\nvalue = [18, 5]"] ;
77 -> 79 ;
80 [label="gini = 0.0\nsamples = 11\nvalue = [11, 0]"] ;
70 -> 80 ;
81 [label="X[3] <= 28.5\ngini = 0.2847\nsamples = 384\nvalue = [318, 66]"] ;
5 -> 81 ;
82 [label="X[2] <= 35.5\ngini = 0.2664\nsamples = 278\nvalue = [234, 44]"] ;
81 -> 82 ;
83 [label="X[3] <= 24.5\ngini = 0.3052\nsamples = 149\nvalue = [121, 28]"] ;
82 -> 83 ;
84 [label="X[2] <= 29.5\ngini = 0.1975\nsamples = 54\nvalue = [48, 6]"] ;
83 -> 84 ;
85 [label="X[2] <= 26.5\ngini = 0.3122\nsamples = 31\nvalue = [25, 6]"] ;
84 -> 85 ;
86 [label="X[3] <= 22.5\ngini = 0.42\nsamples = 10\nvalue = [7, 3]"] ;
85 -> 86 ;
87 [label="X[3] <= 19.5\ngini = 0.3457\nsamples = 9\nvalue = [7, 2]"] ;
86 -> 87 ;
88 [label="X[3] <= 16.5\ngini = 0.4444\nsamples = 6\nvalue = [4, 2]"] ;
87 -> 88 ;
89 [label="gini = 0.0\nsamples = 2\nvalue = [2, 0]"] ;
88 -> 89 ;
90 [label="gini = 0.5\nsamples = 4\nvalue = [2, 2]"] ;
88 -> 90 ;
91 [label="gini = 0.0\nsamples = 3\nvalue = [3, 0]"] ;
87 -> 91 ;
92 [label="gini = 0.0\nsamples = 1\nvalue = [0, 1]"] ;
86 -> 92 ;
93 [label="X[2] <= 28.0\ngini = 0.2449\nsamples = 21\nvalue = [18, 3]"] ;
85 -> 93 ;
94 [label="gini = 0.0\nsamples = 6\nvalue = [6, 0]"] ;
93 -> 94 ;
95 [label="X[3] <= 23.5\ngini = 0.32\nsamples = 15\nvalue = [12, 3]"] ;
93 -> 95 ;
96 [label="X[3] <= 19.0\ngini = 0.2778\nsamples = 12\nvalue = [10, 2]"] ;
95 -> 96 ;
97 [label="X[3] <= 17.0\ngini = 0.375\nsamples = 8\nvalue = [6, 2]"] ;
96 -> 97 ;
98 [label="X[3] <= 15.5\ngini = 0.2449\nsamples = 7\nvalue = [6, 1]"] ;
97 -> 98 ;
99 [label="gini = 0.32\nsamples = 5\nvalue = [4, 1]"] ;
98 -> 99 ;
100 [label="gini = 0.0\nsamples = 2\nvalue = [2, 0]"] ;
98 -> 100 ;
101 [label="gini = 0.0\nsamples = 1\nvalue = [0, 1]"] ;
97 -> 101 ;
102 [label="gini = 0.0\nsamples = 4\nvalue = [4, 0]"] ;
96 -> 102 ;
103 [label="gini = 0.4444\nsamples = 3\nvalue = [2, 1]"] ;
95 -> 103 ;
104 [label="gini = 0.0\nsamples = 23\nvalue = [23, 0]"] ;
84 -> 104 ;
105 [label="X[3] <= 26.5\ngini = 0.3559\nsamples = 95\nvalue = [73, 22]"] ;
83 -> 105 ;
106 [label="X[2] <= 25.5\ngini = 0.48\nsamples = 35\nvalue = [21, 14]"] ;
105 -> 106 ;
107 [label="gini = 0.0\nsamples = 3\nvalue = [3, 0]"] ;
106 -> 107 ;
108 [label="X[2] <= 29.5\ngini = 0.4922\nsamples = 32\nvalue = [18, 14]"] ;
106 -> 108 ;
109 [label="X[3] <= 25.5\ngini = 0.48\nsamples = 15\nvalue = [6, 9]"] ;
108 -> 109 ;
110 [label="X[2] <= 26.5\ngini = 0.375\nsamples = 4\nvalue = [1, 3]"] ;
109 -> 110 ;
111 [label="gini = 0.4444\nsamples = 3\nvalue = [1, 2]"] ;
110 -> 111 ;
112 [label="gini = 0.0\nsamples = 1\nvalue = [0, 1]"] ;
110 -> 112 ;
113 [label="X[2] <= 28.0\ngini = 0.4959\nsamples = 11\nvalue = [5, 6]"] ;
109 -> 113 ;
114 [label="gini = 0.4444\nsamples = 3\nvalue = [2, 1]"] ;
113 -> 114 ;
115 [label="gini = 0.4688\nsamples = 8\nvalue = [3, 5]"] ;
113 -> 115 ;
116 [label="X[3] <= 25.5\ngini = 0.4152\nsamples = 17\nvalue = [12, 5]"] ;
108 -> 116 ;
117 [label="X[2] <= 33.0\ngini = 0.4959\nsamples = 11\nvalue = [6, 5]"] ;
116 -> 117 ;
118 [label="X[2] <= 31.0\ngini = 0.375\nsamples = 4\nvalue = [1, 3]"] ;
117 -> 118 ;
119 [label="gini = 0.0\nsamples = 1\nvalue = [0, 1]"] ;
118 -> 119 ;
120 [label="gini = 0.4444\nsamples = 3\nvalue = [1, 2]"] ;
118 -> 120 ;
121 [label="X[2] <= 34.5\ngini = 0.4082\nsamples = 7\nvalue = [5, 2]"] ;
117 -> 121 ;
122 [label="gini = 0.2778\nsamples = 6\nvalue = [5, 1]"] ;
121 -> 122 ;
123 [label="gini = 0.0\nsamples = 1\nvalue = [0, 1]"] ;
121 -> 123 ;
124 [label="gini = 0.0\nsamples = 6\nvalue = [6, 0]"] ;
116 -> 124 ;
125 [label="X[2] <= 31.0\ngini = 0.2311\nsamples = 60\nvalue = [52, 8]"] ;
105 -> 125 ;
126 [label="X[2] <= 25.5\ngini = 0.1349\nsamples = 55\nvalue = [51, 4]"] ;
125 -> 126 ;
127 [label="gini = 0.0\nsamples = 1\nvalue = [0, 1]"] ;
126 -> 127 ;
128 [label="X[2] <= 26.5\ngini = 0.1049\nsamples = 54\nvalue = [51, 3]"] ;
126 -> 128 ;
129 [label="X[3] <= 27.5\ngini = 0.2268\nsamples = 23\nvalue = [20, 3]"] ;
128 -> 129 ;
130 [label="gini = 0.255\nsamples = 20\nvalue = [17, 3]"] ;
129 -> 130 ;
131 [label="gini = 0.0\nsamples = 3\nvalue = [3, 0]"] ;
129 -> 131 ;
132 [label="gini = 0.0\nsamples = 31\nvalue = [31, 0]"] ;
128 -> 132 ;
133 [label="X[2] <= 33.5\ngini = 0.32\nsamples = 5\nvalue = [1, 4]"] ;
125 -> 133 ;
134 [label="gini = 0.0\nsamples = 1\nvalue = [0, 1]"] ;
133 -> 134 ;
135 [label="gini = 0.375\nsamples = 4\nvalue = [1, 3]"] ;
133 -> 135 ;
136 [label="X[3] <= 24.5\ngini = 0.2173\nsamples = 129\nvalue = [113, 16]"] ;
82 -> 136 ;
137 [label="X[2] <= 38.0\ngini = 0.3503\nsamples = 53\nvalue = [41, 12]"] ;
136 -> 137 ;
138 [label="gini = 0.0\nsamples = 4\nvalue = [4, 0]"] ;
137 -> 138 ;
139 [label="X[3] <= 15.5\ngini = 0.3698\nsamples = 49\nvalue = [37, 12]"] ;
137 -> 139 ;
140 [label="gini = 0.4444\nsamples = 15\nvalue = [10, 5]"] ;
139 -> 140 ;
141 [label="X[3] <= 22.5\ngini = 0.327\nsamples = 34\nvalue = [27, 7]"] ;
139 -> 141 ;
142 [label="X[3] <= 19.0\ngini = 0.2778\nsamples = 18\nvalue = [15, 3]"] ;
141 -> 142 ;
143 [label="X[3] <= 17.0\ngini = 0.32\nsamples = 15\nvalue = [12, 3]"] ;
142 -> 143 ;
144 [label="gini = 0.2975\nsamples = 11\nvalue = [9, 2]"] ;
143 -> 144 ;
145 [label="gini = 0.375\nsamples = 4\nvalue = [3, 1]"] ;
143 -> 145 ;
146 [label="gini = 0.0\nsamples = 3\nvalue = [3, 0]"] ;
142 -> 146 ;
147 [label="gini = 0.375\nsamples = 16\nvalue = [12, 4]"] ;
141 -> 147 ;
148 [label="X[3] <= 26.5\ngini = 0.0997\nsamples = 76\nvalue = [72, 4]"] ;
136 -> 148 ;
149 [label="X[3] <= 25.5\ngini = 0.04\nsamples = 49\nvalue = [48, 1]"] ;
148 -> 149 ;
150 [label="gini = 0.0\nsamples = 24\nvalue = [24, 0]"] ;
149 -> 150 ;
151 [label="X[2] <= 38.0\ngini = 0.0768\nsamples = 25\nvalue = [24, 1]"] ;
149 -> 151 ;
152 [label="gini = 0.0\nsamples = 11\nvalue = [11, 0]"] ;
151 -> 152 ;
153 [label="gini = 0.1327\nsamples = 14\nvalue = [13, 1]"] ;
151 -> 153 ;
154 [label="X[3] <= 27.5\ngini = 0.1975\nsamples = 27\nvalue = [24, 3]"] ;
148 -> 154 ;
155 [label="gini = 0.2449\nsamples = 21\nvalue = [18, 3]"] ;
154 -> 155 ;
156 [label="gini = 0.0\nsamples = 6\nvalue = [6, 0]"] ;
154 -> 156 ;
157 [label="X[2] <= 38.0\ngini = 0.3289\nsamples = 106\nvalue = [84, 22]"] ;
81 -> 157 ;
158 [label="X[2] <= 32.5\ngini = 0.2778\nsamples = 66\nvalue = [55, 11]"] ;
157 -> 158 ;
159 [label="X[2] <= 30.5\ngini = 0.3074\nsamples = 58\nvalue = [47, 11]"] ;
158 -> 159 ;
160 [label="X[2] <= 29.5\ngini = 0.2893\nsamples = 57\nvalue = [47, 10]"] ;
159 -> 160 ;
161 [label="X[2] <= 26.5\ngini = 0.3153\nsamples = 51\nvalue = [41, 10]"] ;
160 -> 161 ;
162 [label="X[3] <= 29.5\ngini = 0.255\nsamples = 40\nvalue = [34, 6]"] ;
161 -> 162 ;
163 [label="X[2] <= 25.5\ngini = 0.32\nsamples = 30\nvalue = [24, 6]"] ;
162 -> 163 ;
164 [label="gini = 0.0\nsamples = 1\nvalue = [1, 0]"] ;
163 -> 164 ;
165 [label="gini = 0.3282\nsamples = 29\nvalue = [23, 6]"] ;
163 -> 165 ;
166 [label="gini = 0.0\nsamples = 10\nvalue = [10, 0]"] ;
162 -> 166 ;
167 [label="X[3] <= 29.5\ngini = 0.4628\nsamples = 11\nvalue = [7, 4]"] ;
161 -> 167 ;
168 [label="gini = 0.4444\nsamples = 6\nvalue = [4, 2]"] ;
167 -> 168 ;
169 [label="gini = 0.48\nsamples = 5\nvalue = [3, 2]"] ;
167 -> 169 ;
170 [label="gini = 0.0\nsamples = 6\nvalue = [6, 0]"] ;
160 -> 170 ;
171 [label="gini = 0.0\nsamples = 1\nvalue = [0, 1]"] ;
159 -> 171 ;
172 [label="gini = 0.0\nsamples = 8\nvalue = [8, 0]"] ;
158 -> 172 ;
173 [label="X[3] <= 29.5\ngini = 0.3988\nsamples = 40\nvalue = [29, 11]"] ;
157 -> 173 ;
174 [label="gini = 0.375\nsamples = 36\nvalue = [27, 9]"] ;
173 -> 174 ;
175 [label="gini = 0.5\nsamples = 4\nvalue = [2, 2]"] ;
173 -> 175 ;
176 [label="X[3] <= 34.5\ngini = 0.115\nsamples = 49\nvalue = [46, 3]"] ;
4 -> 176 ;
177 [label="X[2] <= 38.0\ngini = 0.05\nsamples = 39\nvalue = [38, 1]"] ;
176 -> 177 ;
178 [label="gini = 0.0\nsamples = 34\nvalue = [34, 0]"] ;
177 -> 178 ;
179 [label="X[3] <= 33.0\ngini = 0.32\nsamples = 5\nvalue = [4, 1]"] ;
177 -> 179 ;
180 [label="gini = 0.4444\nsamples = 3\nvalue = [2, 1]"] ;
179 -> 180 ;
181 [label="gini = 0.0\nsamples = 2\nvalue = [2, 0]"] ;
179 -> 181 ;
182 [label="X[2] <= 18.5\ngini = 0.32\nsamples = 10\nvalue = [8, 2]"] ;
176 -> 182 ;
183 [label="gini = 0.5\nsamples = 2\nvalue = [1, 1]"] ;
182 -> 183 ;
184 [label="X[3] <= 35.5\ngini = 0.2188\nsamples = 8\nvalue = [7, 1]"] ;
182 -> 184 ;
185 [label="gini = 0.375\nsamples = 4\nvalue = [3, 1]"] ;
184 -> 185 ;
186 [label="gini = 0.0\nsamples = 4\nvalue = [4, 0]"] ;
184 -> 186 ;
187 [label="X[2] <= 34.5\ngini = 0.4747\nsamples = 614\nvalue = [376, 238]"] ;
3 -> 187 ;
188 [label="X[3] <= 24.5\ngini = 0.4988\nsamples = 349\nvalue = [183, 166]"] ;
187 -> 188 ;
189 [label="X[2] <= 19.0\ngini = 0.4861\nsamples = 108\nvalue = [45, 63]"] ;
188 -> 189 ;
190 [label="X[3] <= 16.0\ngini = 0.375\nsamples = 12\nvalue = [9, 3]"] ;
189 -> 190 ;
191 [label="gini = 0.0\nsamples = 1\nvalue = [0, 1]"] ;
190 -> 191 ;
192 [label="X[2] <= 15.5\ngini = 0.2975\nsamples = 11\nvalue = [9, 2]"] ;
190 -> 192 ;
193 [label="gini = 0.0\nsamples = 5\nvalue = [5, 0]"] ;
192 -> 193 ;
194 [label="X[2] <= 16.5\ngini = 0.4444\nsamples = 6\nvalue = [4, 2]"] ;
192 -> 194 ;
195 [label="gini = 0.5\nsamples = 4\nvalue = [2, 2]"] ;
194 -> 195 ;
196 [label="gini = 0.0\nsamples = 2\nvalue = [2, 0]"] ;
194 -> 196 ;
197 [label="X[2] <= 31.0\ngini = 0.4688\nsamples = 96\nvalue = [36, 60]"] ;
189 -> 197 ;
198 [label="X[2] <= 22.5\ngini = 0.4791\nsamples = 88\nvalue = [35, 53]"] ;
197 -> 198 ;
199 [label="X[3] <= 16.5\ngini = 0.3457\nsamples = 9\nvalue = [2, 7]"] ;
198 -> 199 ;
200 [label="gini = 0.0\nsamples = 3\nvalue = [0, 3]"] ;
199 -> 200 ;
201 [label="X[3] <= 18.0\ngini = 0.4444\nsamples = 6\nvalue = [2, 4]"] ;
199 -> 201 ;
202 [label="gini = 0.0\nsamples = 1\nvalue = [1, 0]"] ;
201 -> 202 ;
203 [label="X[3] <= 22.5\ngini = 0.32\nsamples = 5\nvalue = [1, 4]"] ;
201 -> 203 ;
204 [label="gini = 0.0\nsamples = 3\nvalue = [0, 3]"] ;
203 -> 204 ;
205 [label="gini = 0.5\nsamples = 2\nvalue = [1, 1]"] ;
203 -> 205 ;
206 [label="X[2] <= 23.5\ngini = 0.4865\nsamples = 79\nvalue = [33, 46]"] ;
198 -> 206 ;
207 [label="gini = 0.0\nsamples = 2\nvalue = [2, 0]"] ;
206 -> 207 ;
208 [label="X[3] <= 22.0\ngini = 0.481\nsamples = 77\nvalue = [31, 46]"] ;
206 -> 208 ;
209 [label="X[2] <= 26.5\ngini = 0.4943\nsamples = 47\nvalue = [21, 26]"] ;
208 -> 209 ;
210 [label="X[3] <= 15.5\ngini = 0.5\nsamples = 30\nvalue = [15, 15]"] ;
209 -> 210 ;
211 [label="gini = 0.2449\nsamples = 7\nvalue = [1, 6]"] ;
210 -> 211 ;
212 [label="X[3] <= 17.0\ngini = 0.4764\nsamples = 23\nvalue = [14, 9]"] ;
210 -> 212 ;
213 [label="gini = 0.0\nsamples = 3\nvalue = [3, 0]"] ;
212 -> 213 ;
214 [label="X[2] <= 25.5\ngini = 0.495\nsamples = 20\nvalue = [11, 9]"] ;
212 -> 214 ;
215 [label="X[2] <= 24.5\ngini = 0.4938\nsamples = 9\nvalue = [4, 5]"] ;
214 -> 215 ;
216 [label="X[3] <= 19.0\ngini = 0.4898\nsamples = 7\nvalue = [4, 3]"] ;
215 -> 216 ;
217 [label="gini = 0.0\nsamples = 2\nvalue = [2, 0]"] ;
216 -> 217 ;
218 [label="X[3] <= 20.5\ngini = 0.48\nsamples = 5\nvalue = [2, 3]"] ;
216 -> 218 ;
219 [label="gini = 0.0\nsamples = 3\nvalue = [0, 3]"] ;
218 -> 219 ;
220 [label="gini = 0.0\nsamples = 2\nvalue = [2, 0]"] ;
218 -> 220 ;
221 [label="gini = 0.0\nsamples = 2\nvalue = [0, 2]"] ;
215 -> 221 ;
222 [label="X[3] <= 19.5\ngini = 0.4628\nsamples = 11\nvalue = [7, 4]"] ;
214 -> 222 ;
223 [label="gini = 0.4444\nsamples = 3\nvalue = [2, 1]"] ;
222 -> 223 ;
224 [label="gini = 0.4688\nsamples = 8\nvalue = [5, 3]"] ;
222 -> 224 ;
225 [label="X[3] <= 16.5\ngini = 0.4567\nsamples = 17\nvalue = [6, 11]"] ;
209 -> 225 ;
226 [label="X[2] <= 29.5\ngini = 0.4444\nsamples = 6\nvalue = [4, 2]"] ;
225 -> 226 ;
227 [label="gini = 0.375\nsamples = 4\nvalue = [3, 1]"] ;
226 -> 227 ;
228 [label="gini = 0.5\nsamples = 2\nvalue = [1, 1]"] ;
226 -> 228 ;
229 [label="X[2] <= 29.5\ngini = 0.2975\nsamples = 11\nvalue = [2, 9]"] ;
225 -> 229 ;
230 [label="X[3] <= 19.0\ngini = 0.18\nsamples = 10\nvalue = [1, 9]"] ;
229 -> 230 ;
231 [label="gini = 0.0\nsamples = 6\nvalue = [0, 6]"] ;
230 -> 231 ;
232 [label="X[3] <= 20.5\ngini = 0.375\nsamples = 4\nvalue = [1, 3]"] ;
230 -> 232 ;
233 [label="gini = 0.5\nsamples = 2\nvalue = [1, 1]"] ;
232 -> 233 ;
234 [label="gini = 0.0\nsamples = 2\nvalue = [0, 2]"] ;
232 -> 234 ;
235 [label="gini = 0.0\nsamples = 1\nvalue = [1, 0]"] ;
229 -> 235 ;
236 [label="X[2] <= 25.5\ngini = 0.4444\nsamples = 30\nvalue = [10, 20]"] ;
208 -> 236 ;
237 [label="gini = 0.0\nsamples = 1\nvalue = [1, 0]"] ;
236 -> 237 ;
238 [label="X[2] <= 26.5\ngini = 0.4281\nsamples = 29\nvalue = [9, 20]"] ;
236 -> 238 ;
239 [label="gini = 0.3367\nsamples = 14\nvalue = [3, 11]"] ;
238 -> 239 ;
240 [label="X[2] <= 28.0\ngini = 0.48\nsamples = 15\nvalue = [6, 9]"] ;
238 -> 240 ;
241 [label="gini = 0.0\nsamples = 1\nvalue = [1, 0]"] ;
240 -> 241 ;
242 [label="X[3] <= 23.5\ngini = 0.4592\nsamples = 14\nvalue = [5, 9]"] ;
240 -> 242 ;
243 [label="gini = 0.32\nsamples = 5\nvalue = [1, 4]"] ;
242 -> 243 ;
244 [label="X[2] <= 29.5\ngini = 0.4938\nsamples = 9\nvalue = [4, 5]"] ;
242 -> 244 ;
245 [label="gini = 0.48\nsamples = 5\nvalue = [2, 3]"] ;
244 -> 245 ;
246 [label="gini = 0.5\nsamples = 4\nvalue = [2, 2]"] ;
244 -> 246 ;
247 [label="X[3] <= 16.5\ngini = 0.2188\nsamples = 8\nvalue = [1, 7]"] ;
197 -> 247 ;
248 [label="gini = 0.375\nsamples = 4\nvalue = [1, 3]"] ;
247 -> 248 ;
249 [label="gini = 0.0\nsamples = 4\nvalue = [0, 4]"] ;
247 -> 249 ;
250 [label="X[3] <= 30.5\ngini = 0.4895\nsamples = 241\nvalue = [138, 103]"] ;
188 -> 250 ;
251 [label="X[2] <= 17.5\ngini = 0.4705\nsamples = 177\nvalue = [110, 67]"] ;
250 -> 251 ;
252 [label="X[2] <= 15.5\ngini = 0.4898\nsamples = 14\nvalue = [6, 8]"] ;
251 -> 252 ;
253 [label="X[3] <= 26.0\ngini = 0.4938\nsamples = 9\nvalue = [5, 4]"] ;
252 -> 253 ;
254 [label="gini = 0.5\nsamples = 4\nvalue = [2, 2]"] ;
253 -> 254 ;
255 [label="X[3] <= 28.5\ngini = 0.48\nsamples = 5\nvalue = [3, 2]"] ;
253 -> 255 ;
256 [label="gini = 0.0\nsamples = 1\nvalue = [1, 0]"] ;
255 -> 256 ;
257 [label="gini = 0.5\nsamples = 4\nvalue = [2, 2]"] ;
255 -> 257 ;
258 [label="X[3] <= 25.5\ngini = 0.32\nsamples = 5\nvalue = [1, 4]"] ;
252 -> 258 ;
259 [label="gini = 0.0\nsamples = 1\nvalue = [1, 0]"] ;
258 -> 259 ;
260 [label="gini = 0.0\nsamples = 4\nvalue = [0, 4]"] ;
258 -> 260 ;
261 [label="X[2] <= 29.5\ngini = 0.4619\nsamples = 163\nvalue = [104, 59]"] ;
251 -> 261 ;
262 [label="X[3] <= 26.5\ngini = 0.4369\nsamples = 121\nvalue = [82, 39]"] ;
261 -> 262 ;
263 [label="X[2] <= 21.5\ngini = 0.48\nsamples = 40\nvalue = [24, 16]"] ;
262 -> 263 ;
264 [label="X[3] <= 25.5\ngini = 0.2449\nsamples = 7\nvalue = [6, 1]"] ;
263 -> 264 ;
265 [label="gini = 0.2778\nsamples = 6\nvalue = [5, 1]"] ;
264 -> 265 ;
266 [label="gini = 0.0\nsamples = 1\nvalue = [1, 0]"] ;
264 -> 266 ;
267 [label="X[2] <= 25.5\ngini = 0.4959\nsamples = 33\nvalue = [18, 15]"] ;
263 -> 267 ;
268 [label="X[2] <= 23.0\ngini = 0.4992\nsamples = 25\nvalue = [12, 13]"] ;
267 -> 268 ;
269 [label="X[3] <= 25.5\ngini = 0.4444\nsamples = 6\nvalue = [2, 4]"] ;
268 -> 269 ;
270 [label="gini = 0.48\nsamples = 5\nvalue = [2, 3]"] ;
269 -> 270 ;
271 [label="gini = 0.0\nsamples = 1\nvalue = [0, 1]"] ;
269 -> 271 ;
272 [label="X[3] <= 25.5\ngini = 0.4986\nsamples = 19\nvalue = [10, 9]"] ;
268 -> 272 ;
273 [label="gini = 0.4959\nsamples = 11\nvalue = [6, 5]"] ;
272 -> 273 ;
274 [label="X[2] <= 24.5\ngini = 0.5\nsamples = 8\nvalue = [4, 4]"] ;
272 -> 274 ;
275 [label="gini = 0.5\nsamples = 6\nvalue = [3, 3]"] ;
274 -> 275 ;
276 [label="gini = 0.5\nsamples = 2\nvalue = [1, 1]"] ;
274 -> 276 ;
277 [label="X[3] <= 25.5\ngini = 0.375\nsamples = 8\nvalue = [6, 2]"] ;
267 -> 277 ;
278 [label="X[2] <= 26.5\ngini = 0.2778\nsamples = 6\nvalue = [5, 1]"] ;
277 -> 278 ;
279 [label="gini = 0.32\nsamples = 5\nvalue = [4, 1]"] ;
278 -> 279 ;
280 [label="gini = 0.0\nsamples = 1\nvalue = [1, 0]"] ;
278 -> 280 ;
281 [label="gini = 0.5\nsamples = 2\nvalue = [1, 1]"] ;
277 -> 281 ;
282 [label="X[2] <= 24.5\ngini = 0.4066\nsamples = 81\nvalue = [58, 23]"] ;
262 -> 282 ;
283 [label="X[3] <= 27.5\ngini = 0.3367\nsamples = 28\nvalue = [22, 6]"] ;
282 -> 283 ;
284 [label="X[2] <= 23.5\ngini = 0.4297\nsamples = 16\nvalue = [11, 5]"] ;
283 -> 284 ;
285 [label="X[2] <= 20.0\ngini = 0.4938\nsamples = 9\nvalue = [5, 4]"] ;
284 -> 285 ;
286 [label="gini = 0.48\nsamples = 5\nvalue = [3, 2]"] ;
285 -> 286 ;
287 [label="X[2] <= 22.5\ngini = 0.5\nsamples = 4\nvalue = [2, 2]"] ;
285 -> 287 ;
288 [label="gini = 0.5\nsamples = 2\nvalue = [1, 1]"] ;
287 -> 288 ;
289 [label="gini = 0.5\nsamples = 2\nvalue = [1, 1]"] ;
287 -> 289 ;
290 [label="gini = 0.2449\nsamples = 7\nvalue = [6, 1]"] ;
284 -> 290 ;
291 [label="X[2] <= 23.5\ngini = 0.1528\nsamples = 12\nvalue = [11, 1]"] ;
283 -> 291 ;
292 [label="gini = 0.0\nsamples = 4\nvalue = [4, 0]"] ;
291 -> 292 ;
293 [label="X[3] <= 29.5\ngini = 0.2188\nsamples = 8\nvalue = [7, 1]"] ;
291 -> 293 ;
294 [label="gini = 0.0\nsamples = 2\nvalue = [2, 0]"] ;
293 -> 294 ;
295 [label="gini = 0.2778\nsamples = 6\nvalue = [5, 1]"] ;
293 -> 295 ;
296 [label="X[2] <= 25.5\ngini = 0.4357\nsamples = 53\nvalue = [36, 17]"] ;
282 -> 296 ;
297 [label="X[3] <= 29.0\ngini = 0.48\nsamples = 5\nvalue = [2, 3]"] ;
296 -> 297 ;
298 [label="X[3] <= 27.5\ngini = 0.5\nsamples = 4\nvalue = [2, 2]"] ;
297 -> 298 ;
299 [label="gini = 0.5\nsamples = 2\nvalue = [1, 1]"] ;
298 -> 299 ;
300 [label="gini = 0.5\nsamples = 2\nvalue = [1, 1]"] ;
298 -> 300 ;
301 [label="gini = 0.0\nsamples = 1\nvalue = [0, 1]"] ;
297 -> 301 ;
302 [label="X[3] <= 29.5\ngini = 0.4132\nsamples = 48\nvalue = [34, 14]"] ;
296 -> 302 ;
303 [label="X[3] <= 28.5\ngini = 0.382\nsamples = 35\nvalue = [26, 9]"] ;
302 -> 303 ;
304 [label="X[3] <= 27.5\ngini = 0.4043\nsamples = 32\nvalue = [23, 9]"] ;
303 -> 304 ;
305 [label="X[2] <= 27.5\ngini = 0.375\nsamples = 28\nvalue = [21, 7]"] ;
304 -> 305 ;
306 [label="gini = 0.4444\nsamples = 9\nvalue = [6, 3]"] ;
305 -> 306 ;
307 [label="gini = 0.3324\nsamples = 19\nvalue = [15, 4]"] ;
305 -> 307 ;
308 [label="X[2] <= 27.5\ngini = 0.5\nsamples = 4\nvalue = [2, 2]"] ;
304 -> 308 ;
309 [label="gini = 0.0\nsamples = 1\nvalue = [1, 0]"] ;
308 -> 309 ;
310 [label="gini = 0.4444\nsamples = 3\nvalue = [1, 2]"] ;
308 -> 310 ;
311 [label="gini = 0.0\nsamples = 3\nvalue = [3, 0]"] ;
303 -> 311 ;
312 [label="X[2] <= 26.5\ngini = 0.4734\nsamples = 13\nvalue = [8, 5]"] ;
302 -> 312 ;
313 [label="gini = 0.5\nsamples = 10\nvalue = [5, 5]"] ;
312 -> 313 ;
314 [label="gini = 0.0\nsamples = 3\nvalue = [3, 0]"] ;
312 -> 314 ;
315 [label="X[3] <= 27.5\ngini = 0.4989\nsamples = 42\nvalue = [22, 20]"] ;
261 -> 315 ;
316 [label="X[2] <= 31.0\ngini = 0.4898\nsamples = 35\nvalue = [20, 15]"] ;
315 -> 316 ;
317 [label="X[3] <= 25.5\ngini = 0.5\nsamples = 10\nvalue = [5, 5]"] ;
316 -> 317 ;
318 [label="gini = 0.375\nsamples = 4\nvalue = [1, 3]"] ;
317 -> 318 ;
319 [label="X[3] <= 26.5\ngini = 0.4444\nsamples = 6\nvalue = [4, 2]"] ;
317 -> 319 ;
320 [label="gini = 0.0\nsamples = 1\nvalue = [1, 0]"] ;
319 -> 320 ;
321 [label="gini = 0.48\nsamples = 5\nvalue = [3, 2]"] ;
319 -> 321 ;
322 [label="X[2] <= 33.0\ngini = 0.48\nsamples = 25\nvalue = [15, 10]"] ;
316 -> 322 ;
323 [label="X[3] <= 25.5\ngini = 0.32\nsamples = 5\nvalue = [4, 1]"] ;
322 -> 323 ;
324 [label="gini = 0.0\nsamples = 1\nvalue = [0, 1]"] ;
323 -> 324 ;
325 [label="gini = 0.0\nsamples = 4\nvalue = [4, 0]"] ;
323 -> 325 ;
326 [label="X[3] <= 26.0\ngini = 0.495\nsamples = 20\nvalue = [11, 9]"] ;
322 -> 326 ;
327 [label="gini = 0.375\nsamples = 8\nvalue = [6, 2]"] ;
326 -> 327 ;
328 [label="gini = 0.4861\nsamples = 12\nvalue = [5, 7]"] ;
326 -> 328 ;
329 [label="X[3] <= 28.5\ngini = 0.4082\nsamples = 7\nvalue = [2, 5]"] ;
315 -> 329 ;
330 [label="gini = 0.0\nsamples = 3\nvalue = [0, 3]"] ;
329 -> 330 ;
331 [label="X[2] <= 32.0\ngini = 0.5\nsamples = 4\nvalue = [2, 2]"] ;
329 -> 331 ;
332 [label="gini = 0.0\nsamples = 1\nvalue = [1, 0]"] ;
331 -> 332 ;
333 [label="gini = 0.4444\nsamples = 3\nvalue = [1, 2]"] ;
331 -> 333 ;
334 [label="X[2] <= 31.0\ngini = 0.4922\nsamples = 64\nvalue = [28, 36]"] ;
250 -> 334 ;
335 [label="X[3] <= 34.5\ngini = 0.4837\nsamples = 61\nvalue = [25, 36]"] ;
334 -> 335 ;
336 [label="X[2] <= 18.5\ngini = 0.4721\nsamples = 55\nvalue = [21, 34]"] ;
335 -> 336 ;
337 [label="X[2] <= 16.0\ngini = 0.4938\nsamples = 9\nvalue = [5, 4]"] ;
336 -> 337 ;
338 [label="X[3] <= 32.5\ngini = 0.4444\nsamples = 6\nvalue = [2, 4]"] ;
337 -> 338 ;
339 [label="X[3] <= 31.5\ngini = 0.32\nsamples = 5\nvalue = [1, 4]"] ;
338 -> 339 ;
340 [label="gini = 0.0\nsamples = 1\nvalue = [0, 1]"] ;
339 -> 340 ;
341 [label="gini = 0.375\nsamples = 4\nvalue = [1, 3]"] ;
339 -> 341 ;
342 [label="gini = 0.0\nsamples = 1\nvalue = [1, 0]"] ;
338 -> 342 ;
343 [label="gini = 0.0\nsamples = 3\nvalue = [3, 0]"] ;
337 -> 343 ;
344 [label="X[2] <= 22.0\ngini = 0.4537\nsamples = 46\nvalue = [16, 30]"] ;
336 -> 344 ;
345 [label="gini = 0.0\nsamples = 1\nvalue = [0, 1]"] ;
344 -> 345 ;
346 [label="X[3] <= 33.5\ngini = 0.4583\nsamples = 45\nvalue = [16, 29]"] ;
344 -> 346 ;
347 [label="X[3] <= 32.5\ngini = 0.4704\nsamples = 37\nvalue = [14, 23]"] ;
346 -> 347 ;
348 [label="X[2] <= 29.5\ngini = 0.4614\nsamples = 36\nvalue = [13, 23]"] ;
347 -> 348 ;
349 [label="X[2] <= 28.0\ngini = 0.4512\nsamples = 32\nvalue = [11, 21]"] ;
348 -> 349 ;
350 [label="X[2] <= 24.5\ngini = 0.4688\nsamples = 24\nvalue = [9, 15]"] ;
349 -> 350 ;
351 [label="gini = 0.4297\nsamples = 16\nvalue = [5, 11]"] ;
350 -> 351 ;
352 [label="X[2] <= 26.5\ngini = 0.5\nsamples = 8\nvalue = [4, 4]"] ;
350 -> 352 ;
353 [label="X[3] <= 31.5\ngini = 0.4444\nsamples = 3\nvalue = [2, 1]"] ;
352 -> 353 ;
354 [label="gini = 0.0\nsamples = 1\nvalue = [1, 0]"] ;
353 -> 354 ;
355 [label="gini = 0.5\nsamples = 2\nvalue = [1, 1]"] ;
353 -> 355 ;
356 [label="gini = 0.48\nsamples = 5\nvalue = [2, 3]"] ;
352 -> 356 ;
357 [label="X[3] <= 31.5\ngini = 0.375\nsamples = 8\nvalue = [2, 6]"] ;
349 -> 357 ;
358 [label="gini = 0.0\nsamples = 1\nvalue = [0, 1]"] ;
357 -> 358 ;
359 [label="gini = 0.4082\nsamples = 7\nvalue = [2, 5]"] ;
357 -> 359 ;
360 [label="gini = 0.5\nsamples = 4\nvalue = [2, 2]"] ;
348 -> 360 ;
361 [label="gini = 0.0\nsamples = 1\nvalue = [1, 0]"] ;
347 -> 361 ;
362 [label="X[2] <= 29.5\ngini = 0.375\nsamples = 8\nvalue = [2, 6]"] ;
346 -> 362 ;
363 [label="X[2] <= 28.0\ngini = 0.4082\nsamples = 7\nvalue = [2, 5]"] ;
362 -> 363 ;
364 [label="X[2] <= 26.0\ngini = 0.32\nsamples = 5\nvalue = [1, 4]"] ;
363 -> 364 ;
365 [label="gini = 0.4444\nsamples = 3\nvalue = [1, 2]"] ;
364 -> 365 ;
366 [label="gini = 0.0\nsamples = 2\nvalue = [0, 2]"] ;
364 -> 366 ;
367 [label="gini = 0.5\nsamples = 2\nvalue = [1, 1]"] ;
363 -> 367 ;
368 [label="gini = 0.0\nsamples = 1\nvalue = [0, 1]"] ;
362 -> 368 ;
369 [label="X[3] <= 37.5\ngini = 0.4444\nsamples = 6\nvalue = [4, 2]"] ;
335 -> 369 ;
370 [label="gini = 0.0\nsamples = 4\nvalue = [4, 0]"] ;
369 -> 370 ;
371 [label="gini = 0.0\nsamples = 2\nvalue = [0, 2]"] ;
369 -> 371 ;
372 [label="gini = 0.0\nsamples = 3\nvalue = [3, 0]"] ;
334 -> 372 ;
373 [label="X[3] <= 22.0\ngini = 0.3958\nsamples = 265\nvalue = [193, 72]"] ;
187 -> 373 ;
374 [label="X[3] <= 20.5\ngini = 0.4647\nsamples = 79\nvalue = [50, 29]"] ;
373 -> 374 ;
375 [label="X[3] <= 19.0\ngini = 0.4344\nsamples = 69\nvalue = [47, 22]"] ;
374 -> 375 ;
376 [label="X[3] <= 17.0\ngini = 0.4281\nsamples = 58\nvalue = [40, 18]"] ;
375 -> 376 ;
377 [label="X[3] <= 15.5\ngini = 0.42\nsamples = 30\nvalue = [21, 9]"] ;
376 -> 377 ;
378 [label="gini = 0.4321\nsamples = 19\nvalue = [13, 6]"] ;
377 -> 378 ;
379 [label="gini = 0.3967\nsamples = 11\nvalue = [8, 3]"] ;
377 -> 379 ;
380 [label="gini = 0.4362\nsamples = 28\nvalue = [19, 9]"] ;
376 -> 380 ;
381 [label="gini = 0.4628\nsamples = 11\nvalue = [7, 4]"] ;
375 -> 381 ;
382 [label="X[2] <= 37.0\ngini = 0.42\nsamples = 10\nvalue = [3, 7]"] ;
374 -> 382 ;
383 [label="gini = 0.0\nsamples = 1\nvalue = [1, 0]"] ;
382 -> 383 ;
384 [label="gini = 0.3457\nsamples = 9\nvalue = [2, 7]"] ;
382 -> 384 ;
385 [label="X[3] <= 30.5\ngini = 0.3555\nsamples = 186\nvalue = [143, 43]"] ;
373 -> 385 ;
386 [label="X[3] <= 26.5\ngini = 0.342\nsamples = 169\nvalue = [132, 37]"] ;
385 -> 386 ;
387 [label="X[2] <= 38.0\ngini = 0.3724\nsamples = 97\nvalue = [73, 24]"] ;
386 -> 387 ;
388 [label="gini = 0.0\nsamples = 2\nvalue = [2, 0]"] ;
387 -> 388 ;
389 [label="X[3] <= 23.5\ngini = 0.3776\nsamples = 95\nvalue = [71, 24]"] ;
387 -> 389 ;
390 [label="gini = 0.0\nsamples = 1\nvalue = [1, 0]"] ;
389 -> 390 ;
391 [label="X[3] <= 24.5\ngini = 0.3803\nsamples = 94\nvalue = [70, 24]"] ;
389 -> 391 ;
392 [label="gini = 0.417\nsamples = 27\nvalue = [19, 8]"] ;
391 -> 392 ;
393 [label="X[3] <= 25.5\ngini = 0.3636\nsamples = 67\nvalue = [51, 16]"] ;
391 -> 393 ;
394 [label="gini = 0.3403\nsamples = 46\nvalue = [36, 10]"] ;
393 -> 394 ;
395 [label="gini = 0.4082\nsamples = 21\nvalue = [15, 6]"] ;
393 -> 395 ;
396 [label="X[2] <= 38.0\ngini = 0.2959\nsamples = 72\nvalue = [59, 13]"] ;
386 -> 396 ;
397 [label="X[2] <= 36.5\ngini = 0.4444\nsamples = 3\nvalue = [2, 1]"] ;
396 -> 397 ;
398 [label="gini = 0.0\nsamples = 1\nvalue = [1, 0]"] ;
397 -> 398 ;
399 [label="gini = 0.5\nsamples = 2\nvalue = [1, 1]"] ;
397 -> 399 ;
400 [label="X[3] <= 27.5\ngini = 0.2873\nsamples = 69\nvalue = [57, 12]"] ;
396 -> 400 ;
401 [label="gini = 0.2737\nsamples = 55\nvalue = [46, 9]"] ;
400 -> 401 ;
402 [label="X[3] <= 29.0\ngini = 0.3367\nsamples = 14\nvalue = [11, 3]"] ;
400 -> 402 ;
403 [label="gini = 0.4444\nsamples = 3\nvalue = [2, 1]"] ;
402 -> 403 ;
404 [label="gini = 0.2975\nsamples = 11\nvalue = [9, 2]"] ;
402 -> 404 ;
405 [label="X[3] <= 32.5\ngini = 0.4567\nsamples = 17\nvalue = [11, 6]"] ;
385 -> 405 ;
406 [label="X[3] <= 31.5\ngini = 0.5\nsamples = 10\nvalue = [5, 5]"] ;
405 -> 406 ;
407 [label="gini = 0.5\nsamples = 2\nvalue = [1, 1]"] ;
406 -> 407 ;
408 [label="gini = 0.5\nsamples = 8\nvalue = [4, 4]"] ;
406 -> 408 ;
409 [label="X[3] <= 33.5\ngini = 0.2449\nsamples = 7\nvalue = [6, 1]"] ;
405 -> 409 ;
410 [label="gini = 0.0\nsamples = 3\nvalue = [3, 0]"] ;
409 -> 410 ;
411 [label="X[3] <= 35.5\ngini = 0.375\nsamples = 4\nvalue = [3, 1]"] ;
409 -> 411 ;
412 [label="gini = 0.5\nsamples = 2\nvalue = [1, 1]"] ;
411 -> 412 ;
413 [label="gini = 0.0\nsamples = 2\nvalue = [2, 0]"] ;
411 -> 413 ;
414 [label="X[1] <= 1.5\ngini = 0.3631\nsamples = 1393\nvalue = [332, 1061]"] ;
2 -> 414 ;
415 [label="X[0] <= 0.5\ngini = 0.4321\nsamples = 741\nvalue = [234, 507]"] ;
414 -> 415 ;
416 [label="X[3] <= 27.5\ngini = 0.4962\nsamples = 484\nvalue = [221, 263]"] ;
415 -> 416 ;
417 [label="X[3] <= 14.5\ngini = 0.4655\nsamples = 312\nvalue = [115, 197]"] ;
416 -> 417 ;
418 [label="X[3] <= 8.5\ngini = 0.18\nsamples = 10\nvalue = [9, 1]"] ;
417 -> 418 ;
419 [label="X[3] <= 6.5\ngini = 0.4444\nsamples = 3\nvalue = [2, 1]"] ;
418 -> 419 ;
420 [label="gini = 0.0\nsamples = 2\nvalue = [2, 0]"] ;
419 -> 420 ;
421 [label="gini = 0.0\nsamples = 1\nvalue = [0, 1]"] ;
419 -> 421 ;
422 [label="gini = 0.0\nsamples = 7\nvalue = [7, 0]"] ;
418 -> 422 ;
423 [label="X[2] <= 28.0\ngini = 0.4556\nsamples = 302\nvalue = [106, 196]"] ;
417 -> 423 ;
424 [label="X[2] <= 26.5\ngini = 0.4155\nsamples = 180\nvalue = [53, 127]"] ;
423 -> 424 ;
425 [label="X[2] <= 24.5\ngini = 0.4414\nsamples = 149\nvalue = [49, 100]"] ;
424 -> 425 ;
426 [label="X[2] <= 8.5\ngini = 0.4093\nsamples = 108\nvalue = [31, 77]"] ;
425 -> 426 ;
427 [label="X[2] <= 6.0\ngini = 0.5\nsamples = 12\nvalue = [6, 6]"] ;
426 -> 427 ;
428 [label="X[2] <= 4.5\ngini = 0.375\nsamples = 4\nvalue = [1, 3]"] ;
427 -> 428 ;
429 [label="gini = 0.0\nsamples = 1\nvalue = [1, 0]"] ;
428 -> 429 ;
430 [label="gini = 0.0\nsamples = 3\nvalue = [0, 3]"] ;
428 -> 430 ;
431 [label="X[3] <= 17.0\ngini = 0.4688\nsamples = 8\nvalue = [5, 3]"] ;
427 -> 431 ;
432 [label="gini = 0.0\nsamples = 1\nvalue = [0, 1]"] ;
431 -> 432 ;
433 [label="X[3] <= 19.0\ngini = 0.4082\nsamples = 7\nvalue = [5, 2]"] ;
431 -> 433 ;
434 [label="gini = 0.5\nsamples = 2\nvalue = [1, 1]"] ;
433 -> 434 ;
435 [label="X[3] <= 25.0\ngini = 0.32\nsamples = 5\nvalue = [4, 1]"] ;
433 -> 435 ;
436 [label="gini = 0.0\nsamples = 3\nvalue = [3, 0]"] ;
435 -> 436 ;
437 [label="gini = 0.5\nsamples = 2\nvalue = [1, 1]"] ;
435 -> 437 ;
438 [label="X[2] <= 15.5\ngini = 0.3852\nsamples = 96\nvalue = [25, 71]"] ;
426 -> 438 ;
439 [label="X[3] <= 19.5\ngini = 0.3018\nsamples = 27\nvalue = [5, 22]"] ;
438 -> 439 ;
440 [label="X[2] <= 14.5\ngini = 0.4444\nsamples = 6\nvalue = [2, 4]"] ;
439 -> 440 ;
441 [label="X[2] <= 10.5\ngini = 0.32\nsamples = 5\nvalue = [1, 4]"] ;
440 -> 441 ;
442 [label="X[3] <= 16.5\ngini = 0.5\nsamples = 2\nvalue = [1, 1]"] ;
441 -> 442 ;
443 [label="gini = 0.0\nsamples = 1\nvalue = [1, 0]"] ;
442 -> 443 ;
444 [label="gini = 0.0\nsamples = 1\nvalue = [0, 1]"] ;
442 -> 444 ;
445 [label="gini = 0.0\nsamples = 3\nvalue = [0, 3]"] ;
441 -> 445 ;
446 [label="gini = 0.0\nsamples = 1\nvalue = [1, 0]"] ;
440 -> 446 ;
447 [label="X[3] <= 26.5\ngini = 0.2449\nsamples = 21\nvalue = [3, 18]"] ;
439 -> 447 ;
448 [label="X[3] <= 24.5\ngini = 0.1244\nsamples = 15\nvalue = [1, 14]"] ;
447 -> 448 ;
449 [label="gini = 0.0\nsamples = 7\nvalue = [0, 7]"] ;
448 -> 449 ;
450 [label="X[2] <= 10.5\ngini = 0.2188\nsamples = 8\nvalue = [1, 7]"] ;
448 -> 450 ;
451 [label="X[3] <= 25.5\ngini = 0.375\nsamples = 4\nvalue = [1, 3]"] ;
450 -> 451 ;
452 [label="gini = 0.4444\nsamples = 3\nvalue = [1, 2]"] ;
451 -> 452 ;
453 [label="gini = 0.0\nsamples = 1\nvalue = [0, 1]"] ;
451 -> 453 ;
454 [label="gini = 0.0\nsamples = 4\nvalue = [0, 4]"] ;
450 -> 454 ;
455 [label="X[2] <= 12.5\ngini = 0.4444\nsamples = 6\nvalue = [2, 4]"] ;
447 -> 455 ;
456 [label="gini = 0.0\nsamples = 1\nvalue = [1, 0]"] ;
455 -> 456 ;
457 [label="gini = 0.32\nsamples = 5\nvalue = [1, 4]"] ;
455 -> 457 ;
458 [label="X[2] <= 21.5\ngini = 0.4117\nsamples = 69\nvalue = [20, 49]"] ;
438 -> 458 ;
459 [label="X[3] <= 25.5\ngini = 0.4898\nsamples = 21\nvalue = [9, 12]"] ;
458 -> 459 ;
460 [label="X[2] <= 20.5\ngini = 0.375\nsamples = 12\nvalue = [3, 9]"] ;
459 -> 460 ;
461 [label="X[3] <= 19.5\ngini = 0.2975\nsamples = 11\nvalue = [2, 9]"] ;
460 -> 461 ;
462 [label="gini = 0.0\nsamples = 4\nvalue = [0, 4]"] ;
461 -> 462 ;
463 [label="X[3] <= 22.5\ngini = 0.4082\nsamples = 7\nvalue = [2, 5]"] ;
461 -> 463 ;
464 [label="gini = 0.5\nsamples = 2\nvalue = [1, 1]"] ;
463 -> 464 ;
465 [label="X[2] <= 17.0\ngini = 0.32\nsamples = 5\nvalue = [1, 4]"] ;
463 -> 465 ;
466 [label="gini = 0.0\nsamples = 1\nvalue = [0, 1]"] ;
465 -> 466 ;
467 [label="X[3] <= 24.5\ngini = 0.375\nsamples = 4\nvalue = [1, 3]"] ;
465 -> 467 ;
468 [label="gini = 0.0\nsamples = 1\nvalue = [0, 1]"] ;
467 -> 468 ;
469 [label="X[2] <= 19.0\ngini = 0.4444\nsamples = 3\nvalue = [1, 2]"] ;
467 -> 469 ;
470 [label="gini = 0.5\nsamples = 2\nvalue = [1, 1]"] ;
469 -> 470 ;
471 [label="gini = 0.0\nsamples = 1\nvalue = [0, 1]"] ;
469 -> 471 ;
472 [label="gini = 0.0\nsamples = 1\nvalue = [1, 0]"] ;
460 -> 472 ;
473 [label="X[2] <= 17.0\ngini = 0.4444\nsamples = 9\nvalue = [6, 3]"] ;
459 -> 473 ;
474 [label="gini = 0.0\nsamples = 1\nvalue = [1, 0]"] ;
473 -> 474 ;
475 [label="X[2] <= 19.5\ngini = 0.4688\nsamples = 8\nvalue = [5, 3]"] ;
473 -> 475 ;
476 [label="X[3] <= 26.5\ngini = 0.4444\nsamples = 3\nvalue = [2, 1]"] ;
475 -> 476 ;
477 [label="gini = 0.5\nsamples = 2\nvalue = [1, 1]"] ;
476 -> 477 ;
478 [label="gini = 0.0\nsamples = 1\nvalue = [1, 0]"] ;
476 -> 478 ;
479 [label="X[3] <= 26.5\ngini = 0.48\nsamples = 5\nvalue = [3, 2]"] ;
475 -> 479 ;
480 [label="gini = 0.0\nsamples = 1\nvalue = [1, 0]"] ;
479 -> 480 ;
481 [label="gini = 0.5\nsamples = 4\nvalue = [2, 2]"] ;
479 -> 481 ;
482 [label="X[3] <= 25.5\ngini = 0.3533\nsamples = 48\nvalue = [11, 37]"] ;
458 -> 482 ;
483 [label="X[3] <= 17.5\ngini = 0.4321\nsamples = 19\nvalue = [6, 13]"] ;
482 -> 483 ;
484 [label="gini = 0.0\nsamples = 2\nvalue = [0, 2]"] ;
483 -> 484 ;
485 [label="X[3] <= 19.5\ngini = 0.4567\nsamples = 17\nvalue = [6, 11]"] ;
483 -> 485 ;
486 [label="gini = 0.0\nsamples = 1\nvalue = [1, 0]"] ;
485 -> 486 ;
487 [label="X[3] <= 23.0\ngini = 0.4297\nsamples = 16\nvalue = [5, 11]"] ;
485 -> 487 ;
488 [label="X[3] <= 21.5\ngini = 0.48\nsamples = 5\nvalue = [2, 3]"] ;
487 -> 488 ;
489 [label="gini = 0.375\nsamples = 4\nvalue = [1, 3]"] ;
488 -> 489 ;
490 [label="gini = 0.0\nsamples = 1\nvalue = [1, 0]"] ;
488 -> 490 ;
491 [label="X[3] <= 24.5\ngini = 0.3967\nsamples = 11\nvalue = [3, 8]"] ;
487 -> 491 ;
492 [label="gini = 0.0\nsamples = 1\nvalue = [0, 1]"] ;
491 -> 492 ;
493 [label="gini = 0.42\nsamples = 10\nvalue = [3, 7]"] ;
491 -> 493 ;
494 [label="X[3] <= 26.5\ngini = 0.2854\nsamples = 29\nvalue = [5, 24]"] ;
482 -> 494 ;
495 [label="X[2] <= 23.0\ngini = 0.1975\nsamples = 9\nvalue = [1, 8]"] ;
494 -> 495 ;
496 [label="gini = 0.0\nsamples = 1\nvalue = [0, 1]"] ;
495 -> 496 ;
497 [label="gini = 0.2188\nsamples = 8\nvalue = [1, 7]"] ;
495 -> 497 ;
498 [label="gini = 0.32\nsamples = 20\nvalue = [4, 16]"] ;
494 -> 498 ;
499 [label="X[3] <= 26.5\ngini = 0.4926\nsamples = 41\nvalue = [18, 23]"] ;
425 -> 499 ;
500 [label="X[2] <= 25.5\ngini = 0.4512\nsamples = 32\nvalue = [11, 21]"] ;
499 -> 500 ;
501 [label="X[3] <= 22.0\ngini = 0.4861\nsamples = 12\nvalue = [7, 5]"] ;
500 -> 501 ;
502 [label="gini = 0.0\nsamples = 6\nvalue = [6, 0]"] ;
501 -> 502 ;
503 [label="X[3] <= 25.5\ngini = 0.2778\nsamples = 6\nvalue = [1, 5]"] ;
501 -> 503 ;
504 [label="X[3] <= 24.0\ngini = 0.5\nsamples = 2\nvalue = [1, 1]"] ;
503 -> 504 ;
505 [label="gini = 0.0\nsamples = 1\nvalue = [0, 1]"] ;
504 -> 505 ;
506 [label="gini = 0.0\nsamples = 1\nvalue = [1, 0]"] ;
504 -> 506 ;
507 [label="gini = 0.0\nsamples = 4\nvalue = [0, 4]"] ;
503 -> 507 ;
508 [label="X[3] <= 25.5\ngini = 0.32\nsamples = 20\nvalue = [4, 16]"] ;
500 -> 508 ;
509 [label="X[3] <= 23.5\ngini = 0.2076\nsamples = 17\nvalue = [2, 15]"] ;
508 -> 509 ;
510 [label="X[3] <= 19.5\ngini = 0.2778\nsamples = 12\nvalue = [2, 10]"] ;
509 -> 510 ;
511 [label="gini = 0.0\nsamples = 3\nvalue = [0, 3]"] ;
510 -> 511 ;
512 [label="X[3] <= 22.0\ngini = 0.3457\nsamples = 9\nvalue = [2, 7]"] ;
510 -> 512 ;
513 [label="gini = 0.4444\nsamples = 3\nvalue = [1, 2]"] ;
512 -> 513 ;
514 [label="gini = 0.2778\nsamples = 6\nvalue = [1, 5]"] ;
512 -> 514 ;
515 [label="gini = 0.0\nsamples = 5\nvalue = [0, 5]"] ;
509 -> 515 ;
516 [label="gini = 0.4444\nsamples = 3\nvalue = [2, 1]"] ;
508 -> 516 ;
517 [label="X[2] <= 25.5\ngini = 0.3457\nsamples = 9\nvalue = [7, 2]"] ;
499 -> 517 ;
518 [label="gini = 0.0\nsamples = 2\nvalue = [2, 0]"] ;
517 -> 518 ;
519 [label="gini = 0.4082\nsamples = 7\nvalue = [5, 2]"] ;
517 -> 519 ;
520 [label="X[3] <= 22.5\ngini = 0.2248\nsamples = 31\nvalue = [4, 27]"] ;
424 -> 520 ;
521 [label="X[3] <= 16.5\ngini = 0.4444\nsamples = 9\nvalue = [3, 6]"] ;
520 -> 521 ;
522 [label="gini = 0.375\nsamples = 4\nvalue = [1, 3]"] ;
521 -> 522 ;
523 [label="X[3] <= 19.5\ngini = 0.48\nsamples = 5\nvalue = [2, 3]"] ;
521 -> 523 ;
524 [label="gini = 0.0\nsamples = 1\nvalue = [1, 0]"] ;
523 -> 524 ;
525 [label="gini = 0.375\nsamples = 4\nvalue = [1, 3]"] ;
523 -> 525 ;
526 [label="X[3] <= 24.5\ngini = 0.0868\nsamples = 22\nvalue = [1, 21]"] ;
520 -> 526 ;
527 [label="gini = 0.0\nsamples = 6\nvalue = [0, 6]"] ;
526 -> 527 ;
528 [label="X[3] <= 25.5\ngini = 0.1172\nsamples = 16\nvalue = [1, 15]"] ;
526 -> 528 ;
529 [label="gini = 0.18\nsamples = 10\nvalue = [1, 9]"] ;
528 -> 529 ;
530 [label="gini = 0.0\nsamples = 6\nvalue = [0, 6]"] ;
528 -> 530 ;
531 [label="X[3] <= 15.5\ngini = 0.4914\nsamples = 122\nvalue = [53, 69]"] ;
423 -> 531 ;
532 [label="gini = 0.0\nsamples = 8\nvalue = [0, 8]"] ;
531 -> 532 ;
533 [label="X[3] <= 22.5\ngini = 0.4975\nsamples = 114\nvalue = [53, 61]"] ;
531 -> 533 ;
534 [label="X[2] <= 32.5\ngini = 0.4032\nsamples = 25\nvalue = [18, 7]"] ;
533 -> 534 ;
535 [label="X[3] <= 16.5\ngini = 0.2778\nsamples = 18\nvalue = [15, 3]"] ;
534 -> 535 ;
536 [label="gini = 0.5\nsamples = 2\nvalue = [1, 1]"] ;
535 -> 536 ;
537 [label="X[3] <= 19.0\ngini = 0.2188\nsamples = 16\nvalue = [14, 2]"] ;
535 -> 537 ;
538 [label="gini = 0.0\nsamples = 4\nvalue = [4, 0]"] ;
537 -> 538 ;
539 [label="X[2] <= 31.0\ngini = 0.2778\nsamples = 12\nvalue = [10, 2]"] ;
537 -> 539 ;
540 [label="X[3] <= 21.5\ngini = 0.3457\nsamples = 9\nvalue = [7, 2]"] ;
539 -> 540 ;
541 [label="X[2] <= 29.5\ngini = 0.4082\nsamples = 7\nvalue = [5, 2]"] ;
540 -> 541 ;
542 [label="X[3] <= 20.5\ngini = 0.375\nsamples = 4\nvalue = [3, 1]"] ;
541 -> 542 ;
543 [label="gini = 0.0\nsamples = 1\nvalue = [1, 0]"] ;
542 -> 543 ;
544 [label="gini = 0.4444\nsamples = 3\nvalue = [2, 1]"] ;
542 -> 544 ;
545 [label="gini = 0.4444\nsamples = 3\nvalue = [2, 1]"] ;
541 -> 545 ;
546 [label="gini = 0.0\nsamples = 2\nvalue = [2, 0]"] ;
540 -> 546 ;
547 [label="gini = 0.0\nsamples = 3\nvalue = [3, 0]"] ;
539 -> 547 ;
548 [label="X[2] <= 34.5\ngini = 0.4898\nsamples = 7\nvalue = [3, 4]"] ;
534 -> 548 ;
549 [label="gini = 0.0\nsamples = 4\nvalue = [0, 4]"] ;
548 -> 549 ;
550 [label="gini = 0.0\nsamples = 3\nvalue = [3, 0]"] ;
548 -> 550 ;
551 [label="X[3] <= 26.5\ngini = 0.4772\nsamples = 89\nvalue = [35, 54]"] ;
533 -> 551 ;
552 [label="X[2] <= 35.5\ngini = 0.4478\nsamples = 65\nvalue = [22, 43]"] ;
551 -> 552 ;
553 [label="X[2] <= 32.5\ngini = 0.437\nsamples = 62\nvalue = [20, 42]"] ;
552 -> 553 ;
554 [label="X[3] <= 24.5\ngini = 0.4608\nsamples = 50\nvalue = [18, 32]"] ;
553 -> 554 ;
555 [label="X[2] <= 29.5\ngini = 0.5\nsamples = 10\nvalue = [5, 5]"] ;
554 -> 555 ;
556 [label="gini = 0.32\nsamples = 5\nvalue = [4, 1]"] ;
555 -> 556 ;
557 [label="X[2] <= 31.0\ngini = 0.32\nsamples = 5\nvalue = [1, 4]"] ;
555 -> 557 ;
558 [label="gini = 0.0\nsamples = 1\nvalue = [0, 1]"] ;
557 -> 558 ;
559 [label="X[3] <= 23.5\ngini = 0.375\nsamples = 4\nvalue = [1, 3]"] ;
557 -> 559 ;
560 [label="gini = 0.0\nsamples = 1\nvalue = [0, 1]"] ;
559 -> 560 ;
561 [label="gini = 0.4444\nsamples = 3\nvalue = [1, 2]"] ;
559 -> 561 ;
562 [label="X[2] <= 31.0\ngini = 0.4388\nsamples = 40\nvalue = [13, 27]"] ;
554 -> 562 ;
563 [label="X[3] <= 25.5\ngini = 0.4121\nsamples = 31\nvalue = [9, 22]"] ;
562 -> 563 ;
564 [label="X[2] <= 29.5\ngini = 0.3878\nsamples = 19\nvalue = [5, 14]"] ;
563 -> 564 ;
565 [label="gini = 0.2975\nsamples = 11\nvalue = [2, 9]"] ;
564 -> 565 ;
566 [label="gini = 0.4688\nsamples = 8\nvalue = [3, 5]"] ;
564 -> 566 ;
567 [label="X[2] <= 29.5\ngini = 0.4444\nsamples = 12\nvalue = [4, 8]"] ;
563 -> 567 ;
568 [label="gini = 0.4628\nsamples = 11\nvalue = [4, 7]"] ;
567 -> 568 ;
569 [label="gini = 0.0\nsamples = 1\nvalue = [0, 1]"] ;
567 -> 569 ;
570 [label="X[3] <= 25.5\ngini = 0.4938\nsamples = 9\nvalue = [4, 5]"] ;
562 -> 570 ;
571 [label="gini = 0.375\nsamples = 4\nvalue = [3, 1]"] ;
570 -> 571 ;
572 [label="gini = 0.32\nsamples = 5\nvalue = [1, 4]"] ;
570 -> 572 ;
573 [label="X[3] <= 25.5\ngini = 0.2778\nsamples = 12\nvalue = [2, 10]"] ;
553 -> 573 ;
574 [label="X[3] <= 24.5\ngini = 0.1653\nsamples = 11\nvalue = [1, 10]"] ;
573 -> 574 ;
575 [label="gini = 0.0\nsamples = 3\nvalue = [0, 3]"] ;
574 -> 575 ;
576 [label="X[2] <= 33.5\ngini = 0.2188\nsamples = 8\nvalue = [1, 7]"] ;
574 -> 576 ;
577 [label="gini = 0.0\nsamples = 3\nvalue = [0, 3]"] ;
576 -> 577 ;
578 [label="X[2] <= 34.5\ngini = 0.32\nsamples = 5\nvalue = [1, 4]"] ;
576 -> 578 ;
579 [label="gini = 0.5\nsamples = 2\nvalue = [1, 1]"] ;
578 -> 579 ;
580 [label="gini = 0.0\nsamples = 3\nvalue = [0, 3]"] ;
578 -> 580 ;
581 [label="gini = 0.0\nsamples = 1\nvalue = [1, 0]"] ;
573 -> 581 ;
582 [label="X[3] <= 25.5\ngini = 0.4444\nsamples = 3\nvalue = [2, 1]"] ;
552 -> 582 ;
583 [label="gini = 0.5\nsamples = 2\nvalue = [1, 1]"] ;
582 -> 583 ;
584 [label="gini = 0.0\nsamples = 1\nvalue = [1, 0]"] ;
582 -> 584 ;
585 [label="X[2] <= 33.0\ngini = 0.4965\nsamples = 24\nvalue = [13, 11]"] ;
551 -> 585 ;
586 [label="X[2] <= 30.5\ngini = 0.5\nsamples = 22\nvalue = [11, 11]"] ;
585 -> 586 ;
587 [label="X[2] <= 29.5\ngini = 0.4959\nsamples = 11\nvalue = [6, 5]"] ;
586 -> 587 ;
588 [label="gini = 0.5\nsamples = 8\nvalue = [4, 4]"] ;
587 -> 588 ;
589 [label="gini = 0.4444\nsamples = 3\nvalue = [2, 1]"] ;
587 -> 589 ;
590 [label="X[2] <= 31.5\ngini = 0.4959\nsamples = 11\nvalue = [5, 6]"] ;
586 -> 590 ;
591 [label="gini = 0.0\nsamples = 1\nvalue = [0, 1]"] ;
590 -> 591 ;
592 [label="gini = 0.5\nsamples = 10\nvalue = [5, 5]"] ;
590 -> 592 ;
593 [label="gini = 0.0\nsamples = 2\nvalue = [2, 0]"] ;
585 -> 593 ;
594 [label="X[2] <= 25.5\ngini = 0.473\nsamples = 172\nvalue = [106, 66]"] ;
416 -> 594 ;
595 [label="X[3] <= 29.5\ngini = 0.4943\nsamples = 94\nvalue = [52, 42]"] ;
594 -> 595 ;
596 [label="X[2] <= 8.5\ngini = 0.3866\nsamples = 42\nvalue = [31, 11]"] ;
595 -> 596 ;
597 [label="gini = 0.0\nsamples = 1\nvalue = [0, 1]"] ;
596 -> 597 ;
598 [label="X[2] <= 20.5\ngini = 0.3688\nsamples = 41\nvalue = [31, 10]"] ;
596 -> 598 ;
599 [label="X[2] <= 12.5\ngini = 0.1975\nsamples = 18\nvalue = [16, 2]"] ;
598 -> 599 ;
600 [label="gini = 0.5\nsamples = 2\nvalue = [1, 1]"] ;
599 -> 600 ;
601 [label="X[2] <= 17.0\ngini = 0.1172\nsamples = 16\nvalue = [15, 1]"] ;
599 -> 601 ;
602 [label="gini = 0.0\nsamples = 11\nvalue = [11, 0]"] ;
601 -> 602 ;
603 [label="X[2] <= 19.0\ngini = 0.32\nsamples = 5\nvalue = [4, 1]"] ;
601 -> 603 ;
604 [label="gini = 0.375\nsamples = 4\nvalue = [3, 1]"] ;
603 -> 604 ;
605 [label="gini = 0.0\nsamples = 1\nvalue = [1, 0]"] ;
603 -> 605 ;
606 [label="X[3] <= 28.5\ngini = 0.4537\nsamples = 23\nvalue = [15, 8]"] ;
598 -> 606 ;
607 [label="X[2] <= 22.5\ngini = 0.5\nsamples = 2\nvalue = [1, 1]"] ;
606 -> 607 ;
608 [label="gini = 0.0\nsamples = 1\nvalue = [0, 1]"] ;
607 -> 608 ;
609 [label="gini = 0.0\nsamples = 1\nvalue = [1, 0]"] ;
607 -> 609 ;
610 [label="X[2] <= 21.5\ngini = 0.4444\nsamples = 21\nvalue = [14, 7]"] ;
606 -> 610 ;
611 [label="gini = 0.0\nsamples = 2\nvalue = [2, 0]"] ;
610 -> 611 ;
612 [label="X[2] <= 23.0\ngini = 0.4654\nsamples = 19\nvalue = [12, 7]"] ;
610 -> 612 ;
613 [label="gini = 0.5\nsamples = 2\nvalue = [1, 1]"] ;
612 -> 613 ;
614 [label="X[2] <= 24.5\ngini = 0.4567\nsamples = 17\nvalue = [11, 6]"] ;
612 -> 614 ;
615 [label="gini = 0.4444\nsamples = 12\nvalue = [8, 4]"] ;
614 -> 615 ;
616 [label="gini = 0.48\nsamples = 5\nvalue = [3, 2]"] ;
614 -> 616 ;
617 [label="X[3] <= 30.5\ngini = 0.4815\nsamples = 52\nvalue = [21, 31]"] ;
595 -> 617 ;
618 [label="X[2] <= 22.5\ngini = 0.3841\nsamples = 27\nvalue = [7, 20]"] ;
617 -> 618 ;
619 [label="X[2] <= 19.5\ngini = 0.48\nsamples = 10\nvalue = [4, 6]"] ;
618 -> 619 ;
620 [label="X[2] <= 16.5\ngini = 0.4444\nsamples = 9\nvalue = [3, 6]"] ;
619 -> 620 ;
621 [label="X[2] <= 6.0\ngini = 0.4898\nsamples = 7\nvalue = [3, 4]"] ;
620 -> 621 ;
622 [label="gini = 0.0\nsamples = 1\nvalue = [0, 1]"] ;
621 -> 622 ;
623 [label="X[2] <= 11.0\ngini = 0.5\nsamples = 6\nvalue = [3, 3]"] ;
621 -> 623 ;
624 [label="gini = 0.5\nsamples = 2\nvalue = [1, 1]"] ;
623 -> 624 ;
625 [label="gini = 0.5\nsamples = 4\nvalue = [2, 2]"] ;
623 -> 625 ;
626 [label="gini = 0.0\nsamples = 2\nvalue = [0, 2]"] ;
620 -> 626 ;
627 [label="gini = 0.0\nsamples = 1\nvalue = [1, 0]"] ;
619 -> 627 ;
628 [label="X[2] <= 24.5\ngini = 0.2907\nsamples = 17\nvalue = [3, 14]"] ;
618 -> 628 ;
629 [label="gini = 0.32\nsamples = 5\nvalue = [1, 4]"] ;
628 -> 629 ;
630 [label="gini = 0.2778\nsamples = 12\nvalue = [2, 10]"] ;
628 -> 630 ;
631 [label="X[2] <= 15.5\ngini = 0.4928\nsamples = 25\nvalue = [14, 11]"] ;
617 -> 631 ;
632 [label="X[2] <= 12.5\ngini = 0.426\nsamples = 13\nvalue = [4, 9]"] ;
631 -> 632 ;
633 [label="gini = 0.0\nsamples = 4\nvalue = [4, 0]"] ;
632 -> 633 ;
634 [label="gini = 0.0\nsamples = 9\nvalue = [0, 9]"] ;
632 -> 634 ;
635 [label="X[3] <= 37.0\ngini = 0.2778\nsamples = 12\nvalue = [10, 2]"] ;
631 -> 635 ;
636 [label="X[2] <= 24.5\ngini = 0.1653\nsamples = 11\nvalue = [10, 1]"] ;
635 -> 636 ;
637 [label="gini = 0.0\nsamples = 6\nvalue = [6, 0]"] ;
636 -> 637 ;
638 [label="X[3] <= 33.0\ngini = 0.32\nsamples = 5\nvalue = [4, 1]"] ;
636 -> 638 ;
639 [label="gini = 0.0\nsamples = 1\nvalue = [1, 0]"] ;
638 -> 639 ;
640 [label="X[3] <= 35.0\ngini = 0.375\nsamples = 4\nvalue = [3, 1]"] ;
638 -> 640 ;
641 [label="gini = 0.4444\nsamples = 3\nvalue = [2, 1]"] ;
640 -> 641 ;
642 [label="gini = 0.0\nsamples = 1\nvalue = [1, 0]"] ;
640 -> 642 ;
643 [label="gini = 0.0\nsamples = 1\nvalue = [0, 1]"] ;
635 -> 643 ;
644 [label="X[2] <= 36.5\ngini = 0.426\nsamples = 78\nvalue = [54, 24]"] ;
594 -> 644 ;
645 [label="X[2] <= 28.0\ngini = 0.4114\nsamples = 76\nvalue = [54, 22]"] ;
644 -> 645 ;
646 [label="X[3] <= 29.5\ngini = 0.3389\nsamples = 37\nvalue = [29, 8]"] ;
645 -> 646 ;
647 [label="X[3] <= 28.5\ngini = 0.4688\nsamples = 16\nvalue = [10, 6]"] ;
646 -> 647 ;
648 [label="gini = 0.0\nsamples = 1\nvalue = [1, 0]"] ;
647 -> 648 ;
649 [label="X[2] <= 26.5\ngini = 0.48\nsamples = 15\nvalue = [9, 6]"] ;
647 -> 649 ;
650 [label="gini = 0.4898\nsamples = 14\nvalue = [8, 6]"] ;
649 -> 650 ;
651 [label="gini = 0.0\nsamples = 1\nvalue = [1, 0]"] ;
649 -> 651 ;
652 [label="X[3] <= 33.0\ngini = 0.1723\nsamples = 21\nvalue = [19, 2]"] ;
646 -> 652 ;
653 [label="X[3] <= 30.5\ngini = 0.1975\nsamples = 18\nvalue = [16, 2]"] ;
652 -> 653 ;
654 [label="X[2] <= 26.5\ngini = 0.2188\nsamples = 8\nvalue = [7, 1]"] ;
653 -> 654 ;
655 [label="gini = 0.0\nsamples = 5\nvalue = [5, 0]"] ;
654 -> 655 ;
656 [label="gini = 0.4444\nsamples = 3\nvalue = [2, 1]"] ;
654 -> 656 ;
657 [label="X[2] <= 26.5\ngini = 0.18\nsamples = 10\nvalue = [9, 1]"] ;
653 -> 657 ;
658 [label="X[3] <= 31.5\ngini = 0.4444\nsamples = 3\nvalue = [2, 1]"] ;
657 -> 658 ;
659 [label="gini = 0.0\nsamples = 2\nvalue = [2, 0]"] ;
658 -> 659 ;
660 [label="gini = 0.0\nsamples = 1\nvalue = [0, 1]"] ;
658 -> 660 ;
661 [label="gini = 0.0\nsamples = 7\nvalue = [7, 0]"] ;
657 -> 661 ;
662 [label="gini = 0.0\nsamples = 3\nvalue = [3, 0]"] ;
652 -> 662 ;
663 [label="X[2] <= 33.0\ngini = 0.4602\nsamples = 39\nvalue = [25, 14]"] ;
645 -> 663 ;
664 [label="X[3] <= 29.5\ngini = 0.497\nsamples = 26\nvalue = [14, 12]"] ;
663 -> 664 ;
665 [label="X[2] <= 31.0\ngini = 0.426\nsamples = 13\nvalue = [9, 4]"] ;
664 -> 665 ;
666 [label="X[3] <= 28.5\ngini = 0.48\nsamples = 10\nvalue = [6, 4]"] ;
665 -> 666 ;
667 [label="gini = 0.0\nsamples = 1\nvalue = [1, 0]"] ;
666 -> 667 ;
668 [label="X[2] <= 29.5\ngini = 0.4938\nsamples = 9\nvalue = [5, 4]"] ;
666 -> 668 ;
669 [label="gini = 0.0\nsamples = 1\nvalue = [0, 1]"] ;
668 -> 669 ;
670 [label="gini = 0.4688\nsamples = 8\nvalue = [5, 3]"] ;
668 -> 670 ;
671 [label="gini = 0.0\nsamples = 3\nvalue = [3, 0]"] ;
665 -> 671 ;
672 [label="X[2] <= 30.5\ngini = 0.4734\nsamples = 13\nvalue = [5, 8]"] ;
664 -> 672 ;
673 [label="X[3] <= 36.5\ngini = 0.5\nsamples = 8\nvalue = [4, 4]"] ;
672 -> 673 ;
674 [label="X[3] <= 34.0\ngini = 0.4898\nsamples = 7\nvalue = [4, 3]"] ;
673 -> 674 ;
675 [label="X[3] <= 31.0\ngini = 0.5\nsamples = 6\nvalue = [3, 3]"] ;
674 -> 675 ;
676 [label="gini = 0.5\nsamples = 4\nvalue = [2, 2]"] ;
675 -> 676 ;
677 [label="gini = 0.5\nsamples = 2\nvalue = [1, 1]"] ;
675 -> 677 ;
678 [label="gini = 0.0\nsamples = 1\nvalue = [1, 0]"] ;
674 -> 678 ;
679 [label="gini = 0.0\nsamples = 1\nvalue = [0, 1]"] ;
673 -> 679 ;
680 [label="X[3] <= 32.0\ngini = 0.32\nsamples = 5\nvalue = [1, 4]"] ;
672 -> 680 ;
681 [label="gini = 0.0\nsamples = 2\nvalue = [0, 2]"] ;
680 -> 681 ;
682 [label="gini = 0.4444\nsamples = 3\nvalue = [1, 2]"] ;
680 -> 682 ;
683 [label="X[3] <= 29.5\ngini = 0.2604\nsamples = 13\nvalue = [11, 2]"] ;
663 -> 683 ;
684 [label="X[2] <= 35.5\ngini = 0.4444\nsamples = 6\nvalue = [4, 2]"] ;
683 -> 684 ;
685 [label="X[2] <= 34.5\ngini = 0.48\nsamples = 5\nvalue = [3, 2]"] ;
684 -> 685 ;
686 [label="gini = 0.4444\nsamples = 3\nvalue = [2, 1]"] ;
685 -> 686 ;
687 [label="gini = 0.5\nsamples = 2\nvalue = [1, 1]"] ;
685 -> 687 ;
688 [label="gini = 0.0\nsamples = 1\nvalue = [1, 0]"] ;
684 -> 688 ;
689 [label="gini = 0.0\nsamples = 7\nvalue = [7, 0]"] ;
683 -> 689 ;
690 [label="gini = 0.0\nsamples = 2\nvalue = [0, 2]"] ;
644 -> 690 ;
691 [label="X[2] <= 20.5\ngini = 0.096\nsamples = 257\nvalue = [13, 244]"] ;
415 -> 691 ;
692 [label="X[2] <= 17.0\ngini = 0.2032\nsamples = 61\nvalue = [7, 54]"] ;
691 -> 692 ;
693 [label="X[2] <= 8.5\ngini = 0.0849\nsamples = 45\nvalue = [2, 43]"] ;
692 -> 693 ;
694 [label="gini = 0.0\nsamples = 16\nvalue = [0, 16]"] ;
693 -> 694 ;
695 [label="X[3] <= 24.5\ngini = 0.1284\nsamples = 29\nvalue = [2, 27]"] ;
693 -> 695 ;
696 [label="X[3] <= 21.0\ngini = 0.375\nsamples = 4\nvalue = [1, 3]"] ;
695 -> 696 ;
697 [label="gini = 0.0\nsamples = 2\nvalue = [0, 2]"] ;
696 -> 697 ;
698 [label="gini = 0.5\nsamples = 2\nvalue = [1, 1]"] ;
696 -> 698 ;
699 [label="X[2] <= 12.5\ngini = 0.0768\nsamples = 25\nvalue = [1, 24]"] ;
695 -> 699 ;
700 [label="X[3] <= 27.5\ngini = 0.2449\nsamples = 7\nvalue = [1, 6]"] ;
699 -> 700 ;
701 [label="gini = 0.0\nsamples = 3\nvalue = [0, 3]"] ;
700 -> 701 ;
702 [label="X[3] <= 29.0\ngini = 0.375\nsamples = 4\nvalue = [1, 3]"] ;
700 -> 702 ;
703 [label="gini = 0.0\nsamples = 1\nvalue = [1, 0]"] ;
702 -> 703 ;
704 [label="gini = 0.0\nsamples = 3\nvalue = [0, 3]"] ;
702 -> 704 ;
705 [label="gini = 0.0\nsamples = 18\nvalue = [0, 18]"] ;
699 -> 705 ;
706 [label="X[3] <= 25.5\ngini = 0.4297\nsamples = 16\nvalue = [5, 11]"] ;
692 -> 706 ;
707 [label="X[3] <= 16.0\ngini = 0.1975\nsamples = 9\nvalue = [1, 8]"] ;
706 -> 707 ;
708 [label="gini = 0.4444\nsamples = 3\nvalue = [1, 2]"] ;
707 -> 708 ;
709 [label="gini = 0.0\nsamples = 6\nvalue = [0, 6]"] ;
707 -> 709 ;
710 [label="X[3] <= 26.5\ngini = 0.4898\nsamples = 7\nvalue = [4, 3]"] ;
706 -> 710 ;
711 [label="gini = 0.0\nsamples = 2\nvalue = [2, 0]"] ;
710 -> 711 ;
712 [label="X[2] <= 19.0\ngini = 0.48\nsamples = 5\nvalue = [2, 3]"] ;
710 -> 712 ;
713 [label="gini = 0.0\nsamples = 1\nvalue = [0, 1]"] ;
712 -> 713 ;
714 [label="gini = 0.5\nsamples = 4\nvalue = [2, 2]"] ;
712 -> 714 ;
715 [label="X[2] <= 28.0\ngini = 0.0594\nsamples = 196\nvalue = [6, 190]"] ;
691 -> 715 ;
716 [label="X[3] <= 26.5\ngini = 0.0187\nsamples = 106\nvalue = [1, 105]"] ;
715 -> 716 ;
717 [label="gini = 0.0\nsamples = 54\nvalue = [0, 54]"] ;
716 -> 717 ;
718 [label="X[2] <= 25.5\ngini = 0.0377\nsamples = 52\nvalue = [1, 51]"] ;
716 -> 718 ;
719 [label="X[2] <= 24.5\ngini = 0.0644\nsamples = 30\nvalue = [1, 29]"] ;
718 -> 719 ;
720 [label="gini = 0.0\nsamples = 15\nvalue = [0, 15]"] ;
719 -> 720 ;
721 [label="X[3] <= 27.5\ngini = 0.1244\nsamples = 15\nvalue = [1, 14]"] ;
719 -> 721 ;
722 [label="gini = 0.2449\nsamples = 7\nvalue = [1, 6]"] ;
721 -> 722 ;
723 [label="gini = 0.0\nsamples = 8\nvalue = [0, 8]"] ;
721 -> 723 ;
724 [label="gini = 0.0\nsamples = 22\nvalue = [0, 22]"] ;
718 -> 724 ;
725 [label="X[3] <= 22.0\ngini = 0.1049\nsamples = 90\nvalue = [5, 85]"] ;
715 -> 725 ;
726 [label="X[3] <= 19.5\ngini = 0.2311\nsamples = 15\nvalue = [2, 13]"] ;
725 -> 726 ;
727 [label="gini = 0.0\nsamples = 9\nvalue = [0, 9]"] ;
726 -> 727 ;
728 [label="X[2] <= 32.5\ngini = 0.4444\nsamples = 6\nvalue = [2, 4]"] ;
726 -> 728 ;
729 [label="gini = 0.48\nsamples = 5\nvalue = [2, 3]"] ;
728 -> 729 ;
730 [label="gini = 0.0\nsamples = 1\nvalue = [0, 1]"] ;
728 -> 730 ;
731 [label="X[2] <= 29.5\ngini = 0.0768\nsamples = 75\nvalue = [3, 72]"] ;
725 -> 731 ;
732 [label="X[3] <= 26.0\ngini = 0.2311\nsamples = 15\nvalue = [2, 13]"] ;
731 -> 732 ;
733 [label="gini = 0.0\nsamples = 6\nvalue = [0, 6]"] ;
732 -> 733 ;
734 [label="X[3] <= 28.5\ngini = 0.3457\nsamples = 9\nvalue = [2, 7]"] ;
732 -> 734 ;
735 [label="gini = 0.5\nsamples = 4\nvalue = [2, 2]"] ;
734 -> 735 ;
736 [label="gini = 0.0\nsamples = 5\nvalue = [0, 5]"] ;
734 -> 736 ;
737 [label="X[2] <= 35.5\ngini = 0.0328\nsamples = 60\nvalue = [1, 59]"] ;
731 -> 737 ;
738 [label="gini = 0.0\nsamples = 49\nvalue = [0, 49]"] ;
737 -> 738 ;
739 [label="X[3] <= 25.5\ngini = 0.1653\nsamples = 11\nvalue = [1, 10]"] ;
737 -> 739 ;
740 [label="gini = 0.0\nsamples = 4\nvalue = [0, 4]"] ;
739 -> 740 ;
741 [label="X[3] <= 26.5\ngini = 0.2449\nsamples = 7\nvalue = [1, 6]"] ;
739 -> 741 ;
742 [label="gini = 0.4444\nsamples = 3\nvalue = [1, 2]"] ;
741 -> 742 ;
743 [label="gini = 0.0\nsamples = 4\nvalue = [0, 4]"] ;
741 -> 743 ;
744 [label="X[0] <= 0.5\ngini = 0.2554\nsamples = 652\nvalue = [98, 554]"] ;
414 -> 744 ;
745 [label="X[3] <= 37.5\ngini = 0.1902\nsamples = 451\nvalue = [48, 403]"] ;
744 -> 745 ;
746 [label="X[3] <= 24.5\ngini = 0.1778\nsamples = 446\nvalue = [44, 402]"] ;
745 -> 746 ;
747 [label="X[2] <= 26.5\ngini = 0.3175\nsamples = 96\nvalue = [19, 77]"] ;
746 -> 747 ;
748 [label="X[2] <= 15.5\ngini = 0.4043\nsamples = 64\nvalue = [18, 46]"] ;
747 -> 748 ;
749 [label="gini = 0.0\nsamples = 20\nvalue = [0, 20]"] ;
748 -> 749 ;
750 [label="X[2] <= 17.0\ngini = 0.4835\nsamples = 44\nvalue = [18, 26]"] ;
748 -> 750 ;
751 [label="X[3] <= 21.0\ngini = 0.32\nsamples = 5\nvalue = [4, 1]"] ;
750 -> 751 ;
752 [label="gini = 0.0\nsamples = 1\nvalue = [0, 1]"] ;
751 -> 752 ;
753 [label="gini = 0.0\nsamples = 4\nvalue = [4, 0]"] ;
751 -> 753 ;
754 [label="X[2] <= 25.5\ngini = 0.4602\nsamples = 39\nvalue = [14, 25]"] ;
750 -> 754 ;
755 [label="X[3] <= 14.5\ngini = 0.431\nsamples = 35\nvalue = [11, 24]"] ;
754 -> 755 ;
756 [label="gini = 0.0\nsamples = 2\nvalue = [0, 2]"] ;
755 -> 756 ;
757 [label="X[2] <= 24.5\ngini = 0.4444\nsamples = 33\nvalue = [11, 22]"] ;
755 -> 757 ;
758 [label="X[3] <= 23.5\ngini = 0.4717\nsamples = 21\nvalue = [8, 13]"] ;
757 -> 758 ;
759 [label="X[3] <= 19.0\ngini = 0.4922\nsamples = 16\nvalue = [7, 9]"] ;
758 -> 759 ;
760 [label="X[2] <= 23.0\ngini = 0.4592\nsamples = 14\nvalue = [5, 9]"] ;
759 -> 760 ;
761 [label="X[3] <= 17.5\ngini = 0.2778\nsamples = 6\nvalue = [1, 5]"] ;
760 -> 761 ;
762 [label="gini = 0.0\nsamples = 3\nvalue = [0, 3]"] ;
761 -> 762 ;
763 [label="X[2] <= 20.5\ngini = 0.4444\nsamples = 3\nvalue = [1, 2]"] ;
761 -> 763 ;
764 [label="gini = 0.0\nsamples = 1\nvalue = [0, 1]"] ;
763 -> 764 ;
765 [label="gini = 0.5\nsamples = 2\nvalue = [1, 1]"] ;
763 -> 765 ;
766 [label="X[3] <= 16.5\ngini = 0.5\nsamples = 8\nvalue = [4, 4]"] ;
760 -> 766 ;
767 [label="gini = 0.5\nsamples = 6\nvalue = [3, 3]"] ;
766 -> 767 ;
768 [label="gini = 0.5\nsamples = 2\nvalue = [1, 1]"] ;
766 -> 768 ;
769 [label="gini = 0.0\nsamples = 2\nvalue = [2, 0]"] ;
759 -> 769 ;
770 [label="X[2] <= 19.5\ngini = 0.32\nsamples = 5\nvalue = [1, 4]"] ;
758 -> 770 ;
771 [label="gini = 0.5\nsamples = 2\nvalue = [1, 1]"] ;
770 -> 771 ;
772 [label="gini = 0.0\nsamples = 3\nvalue = [0, 3]"] ;
770 -> 772 ;
773 [label="X[3] <= 20.5\ngini = 0.375\nsamples = 12\nvalue = [3, 9]"] ;
757 -> 773 ;
774 [label="gini = 0.0\nsamples = 2\nvalue = [0, 2]"] ;
773 -> 774 ;
775 [label="X[3] <= 22.0\ngini = 0.42\nsamples = 10\nvalue = [3, 7]"] ;
773 -> 775 ;
776 [label="gini = 0.0\nsamples = 1\nvalue = [1, 0]"] ;
775 -> 776 ;
777 [label="X[3] <= 23.5\ngini = 0.3457\nsamples = 9\nvalue = [2, 7]"] ;
775 -> 777 ;
778 [label="gini = 0.2778\nsamples = 6\nvalue = [1, 5]"] ;
777 -> 778 ;
779 [label="gini = 0.4444\nsamples = 3\nvalue = [1, 2]"] ;
777 -> 779 ;
780 [label="X[3] <= 17.5\ngini = 0.375\nsamples = 4\nvalue = [3, 1]"] ;
754 -> 780 ;
781 [label="gini = 0.0\nsamples = 1\nvalue = [1, 0]"] ;
780 -> 781 ;
782 [label="X[3] <= 21.0\ngini = 0.4444\nsamples = 3\nvalue = [2, 1]"] ;
780 -> 782 ;
783 [label="gini = 0.5\nsamples = 2\nvalue = [1, 1]"] ;
782 -> 783 ;
784 [label="gini = 0.0\nsamples = 1\nvalue = [1, 0]"] ;
782 -> 784 ;
785 [label="X[3] <= 22.5\ngini = 0.0605\nsamples = 32\nvalue = [1, 31]"] ;
747 -> 785 ;
786 [label="gini = 0.0\nsamples = 20\nvalue = [0, 20]"] ;
785 -> 786 ;
787 [label="X[3] <= 23.5\ngini = 0.1528\nsamples = 12\nvalue = [1, 11]"] ;
785 -> 787 ;
788 [label="gini = 0.0\nsamples = 1\nvalue = [1, 0]"] ;
787 -> 788 ;
789 [label="gini = 0.0\nsamples = 11\nvalue = [0, 11]"] ;
787 -> 789 ;
790 [label="X[3] <= 28.0\ngini = 0.1327\nsamples = 350\nvalue = [25, 325]"] ;
746 -> 790 ;
791 [label="X[3] <= 26.5\ngini = 0.0726\nsamples = 212\nvalue = [8, 204]"] ;
790 -> 791 ;
792 [label="X[2] <= 17.0\ngini = 0.1676\nsamples = 65\nvalue = [6, 59]"] ;
791 -> 792 ;
793 [label="gini = 0.0\nsamples = 12\nvalue = [0, 12]"] ;
792 -> 793 ;
794 [label="X[2] <= 19.0\ngini = 0.2008\nsamples = 53\nvalue = [6, 47]"] ;
792 -> 794 ;
795 [label="gini = 0.5\nsamples = 2\nvalue = [1, 1]"] ;
794 -> 795 ;
796 [label="X[2] <= 34.5\ngini = 0.1769\nsamples = 51\nvalue = [5, 46]"] ;
794 -> 796 ;
797 [label="X[2] <= 28.0\ngini = 0.2188\nsamples = 40\nvalue = [5, 35]"] ;
796 -> 797 ;
798 [label="X[2] <= 26.5\ngini = 0.142\nsamples = 26\nvalue = [2, 24]"] ;
797 -> 798 ;
799 [label="X[2] <= 23.0\ngini = 0.2076\nsamples = 17\nvalue = [2, 15]"] ;
798 -> 799 ;
800 [label="gini = 0.0\nsamples = 8\nvalue = [0, 8]"] ;
799 -> 800 ;
801 [label="X[2] <= 25.0\ngini = 0.3457\nsamples = 9\nvalue = [2, 7]"] ;
799 -> 801 ;
802 [label="X[3] <= 25.5\ngini = 0.2778\nsamples = 6\nvalue = [1, 5]"] ;
801 -> 802 ;
803 [label="gini = 0.0\nsamples = 3\nvalue = [0, 3]"] ;
802 -> 803 ;
804 [label="gini = 0.4444\nsamples = 3\nvalue = [1, 2]"] ;
802 -> 804 ;
805 [label="gini = 0.4444\nsamples = 3\nvalue = [1, 2]"] ;
801 -> 805 ;
806 [label="gini = 0.0\nsamples = 9\nvalue = [0, 9]"] ;
798 -> 806 ;
807 [label="X[2] <= 30.5\ngini = 0.3367\nsamples = 14\nvalue = [3, 11]"] ;
797 -> 807 ;
808 [label="gini = 0.5\nsamples = 4\nvalue = [2, 2]"] ;
807 -> 808 ;
809 [label="X[2] <= 33.0\ngini = 0.18\nsamples = 10\nvalue = [1, 9]"] ;
807 -> 809 ;
810 [label="gini = 0.0\nsamples = 6\nvalue = [0, 6]"] ;
809 -> 810 ;
811 [label="gini = 0.375\nsamples = 4\nvalue = [1, 3]"] ;
809 -> 811 ;
812 [label="gini = 0.0\nsamples = 11\nvalue = [0, 11]"] ;
796 -> 812 ;
813 [label="X[2] <= 23.5\ngini = 0.0268\nsamples = 147\nvalue = [2, 145]"] ;
791 -> 813 ;
814 [label="gini = 0.0\nsamples = 77\nvalue = [0, 77]"] ;
813 -> 814 ;
815 [label="X[2] <= 24.5\ngini = 0.0555\nsamples = 70\nvalue = [2, 68]"] ;
813 -> 815 ;
816 [label="gini = 0.32\nsamples = 10\nvalue = [2, 8]"] ;
815 -> 816 ;
817 [label="gini = 0.0\nsamples = 60\nvalue = [0, 60]"] ;
815 -> 817 ;
818 [label="X[3] <= 29.5\ngini = 0.216\nsamples = 138\nvalue = [17, 121]"] ;
790 -> 818 ;
819 [label="X[2] <= 26.5\ngini = 0.3058\nsamples = 69\nvalue = [13, 56]"] ;
818 -> 819 ;
820 [label="X[2] <= 8.5\ngini = 0.3799\nsamples = 51\nvalue = [13, 38]"] ;
819 -> 820 ;
821 [label="gini = 0.0\nsamples = 1\nvalue = [1, 0]"] ;
820 -> 821 ;
822 [label="X[2] <= 25.0\ngini = 0.3648\nsamples = 50\nvalue = [12, 38]"] ;
820 -> 822 ;
823 [label="X[2] <= 21.5\ngini = 0.2945\nsamples = 39\nvalue = [7, 32]"] ;
822 -> 823 ;
824 [label="X[2] <= 13.0\ngini = 0.4132\nsamples = 24\nvalue = [7, 17]"] ;
823 -> 824 ;
825 [label="gini = 0.2778\nsamples = 12\nvalue = [2, 10]"] ;
824 -> 825 ;
826 [label="X[2] <= 16.5\ngini = 0.4861\nsamples = 12\nvalue = [5, 7]"] ;
824 -> 826 ;
827 [label="gini = 0.375\nsamples = 4\nvalue = [3, 1]"] ;
826 -> 827 ;
828 [label="X[2] <= 19.5\ngini = 0.375\nsamples = 8\nvalue = [2, 6]"] ;
826 -> 828 ;
829 [label="gini = 0.0\nsamples = 3\nvalue = [0, 3]"] ;
828 -> 829 ;
830 [label="gini = 0.48\nsamples = 5\nvalue = [2, 3]"] ;
828 -> 830 ;
831 [label="gini = 0.0\nsamples = 15\nvalue = [0, 15]"] ;
823 -> 831 ;
832 [label="gini = 0.4959\nsamples = 11\nvalue = [5, 6]"] ;
822 -> 832 ;
833 [label="gini = 0.0\nsamples = 18\nvalue = [0, 18]"] ;
819 -> 833 ;
834 [label="X[2] <= 23.0\ngini = 0.1092\nsamples = 69\nvalue = [4, 65]"] ;
818 -> 834 ;
835 [label="gini = 0.0\nsamples = 24\nvalue = [0, 24]"] ;
834 -> 835 ;
836 [label="X[3] <= 31.5\ngini = 0.162\nsamples = 45\nvalue = [4, 41]"] ;
834 -> 836 ;
837 [label="gini = 0.0\nsamples = 8\nvalue = [0, 8]"] ;
836 -> 837 ;
838 [label="X[3] <= 32.5\ngini = 0.1928\nsamples = 37\nvalue = [4, 33]"] ;
836 -> 838 ;
839 [label="X[2] <= 31.0\ngini = 0.2659\nsamples = 19\nvalue = [3, 16]"] ;
838 -> 839 ;
840 [label="X[2] <= 25.5\ngini = 0.2076\nsamples = 17\nvalue = [2, 15]"] ;
839 -> 840 ;
841 [label="gini = 0.0\nsamples = 3\nvalue = [0, 3]"] ;
840 -> 841 ;
842 [label="X[2] <= 26.5\ngini = 0.2449\nsamples = 14\nvalue = [2, 12]"] ;
840 -> 842 ;
843 [label="gini = 0.375\nsamples = 4\nvalue = [1, 3]"] ;
842 -> 843 ;
844 [label="X[2] <= 28.0\ngini = 0.18\nsamples = 10\nvalue = [1, 9]"] ;
842 -> 844 ;
845 [label="gini = 0.0\nsamples = 4\nvalue = [0, 4]"] ;
844 -> 845 ;
846 [label="X[2] <= 29.5\ngini = 0.2778\nsamples = 6\nvalue = [1, 5]"] ;
844 -> 846 ;
847 [label="gini = 0.375\nsamples = 4\nvalue = [1, 3]"] ;
846 -> 847 ;
848 [label="gini = 0.0\nsamples = 2\nvalue = [0, 2]"] ;
846 -> 848 ;
849 [label="gini = 0.5\nsamples = 2\nvalue = [1, 1]"] ;
839 -> 849 ;
850 [label="X[3] <= 36.5\ngini = 0.1049\nsamples = 18\nvalue = [1, 17]"] ;
838 -> 850 ;
851 [label="gini = 0.0\nsamples = 13\nvalue = [0, 13]"] ;
850 -> 851 ;
852 [label="X[2] <= 25.5\ngini = 0.32\nsamples = 5\nvalue = [1, 4]"] ;
850 -> 852 ;
853 [label="gini = 0.0\nsamples = 1\nvalue = [1, 0]"] ;
852 -> 853 ;
854 [label="gini = 0.0\nsamples = 4\nvalue = [0, 4]"] ;
852 -> 854 ;
855 [label="X[2] <= 27.0\ngini = 0.32\nsamples = 5\nvalue = [4, 1]"] ;
745 -> 855 ;
856 [label="gini = 0.0\nsamples = 1\nvalue = [1, 0]"] ;
855 -> 856 ;
857 [label="X[2] <= 30.5\ngini = 0.375\nsamples = 4\nvalue = [3, 1]"] ;
855 -> 857 ;
858 [label="gini = 0.4444\nsamples = 3\nvalue = [2, 1]"] ;
857 -> 858 ;
859 [label="gini = 0.0\nsamples = 1\nvalue = [1, 0]"] ;
857 -> 859 ;
860 [label="X[2] <= 12.5\ngini = 0.3738\nsamples = 201\nvalue = [50, 151]"] ;
744 -> 860 ;
861 [label="X[2] <= 6.0\ngini = 0.0907\nsamples = 42\nvalue = [2, 40]"] ;
860 -> 861 ;
862 [label="gini = 0.0\nsamples = 1\nvalue = [1, 0]"] ;
861 -> 862 ;
863 [label="X[3] <= 24.5\ngini = 0.0476\nsamples = 41\nvalue = [1, 40]"] ;
861 -> 863 ;
864 [label="X[3] <= 22.5\ngini = 0.2188\nsamples = 8\nvalue = [1, 7]"] ;
863 -> 864 ;
865 [label="gini = 0.0\nsamples = 2\nvalue = [0, 2]"] ;
864 -> 865 ;
866 [label="gini = 0.2778\nsamples = 6\nvalue = [1, 5]"] ;
864 -> 866 ;
867 [label="gini = 0.0\nsamples = 33\nvalue = [0, 33]"] ;
863 -> 867 ;
868 [label="X[2] <= 15.5\ngini = 0.4215\nsamples = 159\nvalue = [48, 111]"] ;
860 -> 868 ;
869 [label="gini = 0.0\nsamples = 2\nvalue = [2, 0]"] ;
868 -> 869 ;
870 [label="X[3] <= 31.0\ngini = 0.4143\nsamples = 157\nvalue = [46, 111]"] ;
868 -> 870 ;
871 [label="X[2] <= 35.5\ngini = 0.4411\nsamples = 134\nvalue = [44, 90]"] ;
870 -> 871 ;
872 [label="X[2] <= 33.0\ngini = 0.4495\nsamples = 129\nvalue = [44, 85]"] ;
871 -> 872 ;
873 [label="X[3] <= 29.5\ngini = 0.437\nsamples = 124\nvalue = [40, 84]"] ;
872 -> 873 ;
874 [label="X[2] <= 29.5\ngini = 0.417\nsamples = 108\nvalue = [32, 76]"] ;
873 -> 874 ;
875 [label="X[3] <= 20.5\ngini = 0.4346\nsamples = 94\nvalue = [30, 64]"] ;
874 -> 875 ;
876 [label="X[2] <= 26.5\ngini = 0.32\nsamples = 20\nvalue = [4, 16]"] ;
875 -> 876 ;
877 [label="X[2] <= 20.0\ngini = 0.5\nsamples = 2\nvalue = [1, 1]"] ;
876 -> 877 ;
878 [label="gini = 0.0\nsamples = 1\nvalue = [0, 1]"] ;
877 -> 878 ;
879 [label="gini = 0.0\nsamples = 1\nvalue = [1, 0]"] ;
877 -> 879 ;
880 [label="gini = 0.2778\nsamples = 18\nvalue = [3, 15]"] ;
876 -> 880 ;
881 [label="X[2] <= 25.5\ngini = 0.4558\nsamples = 74\nvalue = [26, 48]"] ;
875 -> 881 ;
882 [label="X[3] <= 22.5\ngini = 0.3848\nsamples = 50\nvalue = [13, 37]"] ;
881 -> 882 ;
883 [label="gini = 0.0\nsamples = 1\nvalue = [1, 0]"] ;
882 -> 883 ;
884 [label="X[2] <= 23.0\ngini = 0.3698\nsamples = 49\nvalue = [12, 37]"] ;
882 -> 884 ;
885 [label="X[2] <= 21.5\ngini = 0.4362\nsamples = 28\nvalue = [9, 19]"] ;
884 -> 885 ;
886 [label="X[3] <= 27.5\ngini = 0.3403\nsamples = 23\nvalue = [5, 18]"] ;
885 -> 886 ;
887 [label="X[2] <= 20.5\ngini = 0.3628\nsamples = 21\nvalue = [5, 16]"] ;
886 -> 887 ;
888 [label="X[2] <= 17.5\ngini = 0.3911\nsamples = 15\nvalue = [4, 11]"] ;
887 -> 888 ;
889 [label="X[3] <= 26.5\ngini = 0.32\nsamples = 5\nvalue = [1, 4]"] ;
888 -> 889 ;
890 [label="gini = 0.0\nsamples = 3\nvalue = [0, 3]"] ;
889 -> 890 ;
891 [label="X[2] <= 16.5\ngini = 0.5\nsamples = 2\nvalue = [1, 1]"] ;
889 -> 891 ;
892 [label="gini = 0.0\nsamples = 1\nvalue = [1, 0]"] ;
891 -> 892 ;
893 [label="gini = 0.0\nsamples = 1\nvalue = [0, 1]"] ;
891 -> 893 ;
894 [label="X[3] <= 26.5\ngini = 0.42\nsamples = 10\nvalue = [3, 7]"] ;
888 -> 894 ;
895 [label="X[3] <= 25.0\ngini = 0.4444\nsamples = 9\nvalue = [3, 6]"] ;
894 -> 895 ;
896 [label="X[2] <= 19.0\ngini = 0.4082\nsamples = 7\nvalue = [2, 5]"] ;
895 -> 896 ;
897 [label="gini = 0.0\nsamples = 1\nvalue = [0, 1]"] ;
896 -> 897 ;
898 [label="gini = 0.4444\nsamples = 6\nvalue = [2, 4]"] ;
896 -> 898 ;
899 [label="gini = 0.5\nsamples = 2\nvalue = [1, 1]"] ;
895 -> 899 ;
900 [label="gini = 0.0\nsamples = 1\nvalue = [0, 1]"] ;
894 -> 900 ;
901 [label="X[3] <= 26.0\ngini = 0.2778\nsamples = 6\nvalue = [1, 5]"] ;
887 -> 901 ;
902 [label="gini = 0.0\nsamples = 1\nvalue = [0, 1]"] ;
901 -> 902 ;
903 [label="gini = 0.32\nsamples = 5\nvalue = [1, 4]"] ;
901 -> 903 ;
904 [label="gini = 0.0\nsamples = 2\nvalue = [0, 2]"] ;
886 -> 904 ;
905 [label="X[3] <= 26.5\ngini = 0.32\nsamples = 5\nvalue = [4, 1]"] ;
885 -> 905 ;
906 [label="gini = 0.0\nsamples = 2\nvalue = [2, 0]"] ;
905 -> 906 ;
907 [label="X[3] <= 27.5\ngini = 0.4444\nsamples = 3\nvalue = [2, 1]"] ;
905 -> 907 ;
908 [label="gini = 0.5\nsamples = 2\nvalue = [1, 1]"] ;
907 -> 908 ;
909 [label="gini = 0.0\nsamples = 1\nvalue = [1, 0]"] ;
907 -> 909 ;
910 [label="X[3] <= 28.5\ngini = 0.2449\nsamples = 21\nvalue = [3, 18]"] ;
884 -> 910 ;
911 [label="X[2] <= 24.5\ngini = 0.1884\nsamples = 19\nvalue = [2, 17]"] ;
910 -> 911 ;
912 [label="gini = 0.0\nsamples = 4\nvalue = [0, 4]"] ;
911 -> 912 ;
913 [label="X[3] <= 25.5\ngini = 0.2311\nsamples = 15\nvalue = [2, 13]"] ;
911 -> 913 ;
914 [label="gini = 0.0\nsamples = 2\nvalue = [0, 2]"] ;
913 -> 914 ;
915 [label="X[3] <= 27.5\ngini = 0.2604\nsamples = 13\nvalue = [2, 11]"] ;
913 -> 915 ;
916 [label="gini = 0.2778\nsamples = 12\nvalue = [2, 10]"] ;
915 -> 916 ;
917 [label="gini = 0.0\nsamples = 1\nvalue = [0, 1]"] ;
915 -> 917 ;
918 [label="gini = 0.5\nsamples = 2\nvalue = [1, 1]"] ;
910 -> 918 ;
919 [label="X[3] <= 23.5\ngini = 0.4965\nsamples = 24\nvalue = [13, 11]"] ;
881 -> 919 ;
920 [label="gini = 0.0\nsamples = 2\nvalue = [0, 2]"] ;
919 -> 920 ;
921 [label="X[3] <= 26.5\ngini = 0.4835\nsamples = 22\nvalue = [13, 9]"] ;
919 -> 921 ;
922 [label="X[2] <= 28.0\ngini = 0.3457\nsamples = 9\nvalue = [7, 2]"] ;
921 -> 922 ;
923 [label="X[3] <= 24.5\ngini = 0.5\nsamples = 2\nvalue = [1, 1]"] ;
922 -> 923 ;
924 [label="gini = 0.0\nsamples = 1\nvalue = [0, 1]"] ;
923 -> 924 ;
925 [label="gini = 0.0\nsamples = 1\nvalue = [1, 0]"] ;
923 -> 925 ;
926 [label="X[3] <= 25.0\ngini = 0.2449\nsamples = 7\nvalue = [6, 1]"] ;
922 -> 926 ;
927 [label="gini = 0.0\nsamples = 3\nvalue = [3, 0]"] ;
926 -> 927 ;
928 [label="gini = 0.375\nsamples = 4\nvalue = [3, 1]"] ;
926 -> 928 ;
929 [label="X[2] <= 28.0\ngini = 0.497\nsamples = 13\nvalue = [6, 7]"] ;
921 -> 929 ;
930 [label="X[3] <= 28.0\ngini = 0.4444\nsamples = 9\nvalue = [6, 3]"] ;
929 -> 930 ;
931 [label="X[2] <= 26.5\ngini = 0.375\nsamples = 8\nvalue = [6, 2]"] ;
930 -> 931 ;
932 [label="gini = 0.2778\nsamples = 6\nvalue = [5, 1]"] ;
931 -> 932 ;
933 [label="gini = 0.5\nsamples = 2\nvalue = [1, 1]"] ;
931 -> 933 ;
934 [label="gini = 0.0\nsamples = 1\nvalue = [0, 1]"] ;
930 -> 934 ;
935 [label="gini = 0.0\nsamples = 4\nvalue = [0, 4]"] ;
929 -> 935 ;
936 [label="X[3] <= 27.5\ngini = 0.2449\nsamples = 14\nvalue = [2, 12]"] ;
874 -> 936 ;
937 [label="X[2] <= 31.0\ngini = 0.142\nsamples = 13\nvalue = [1, 12]"] ;
936 -> 937 ;
938 [label="gini = 0.0\nsamples = 5\nvalue = [0, 5]"] ;
937 -> 938 ;
939 [label="X[3] <= 26.0\ngini = 0.2188\nsamples = 8\nvalue = [1, 7]"] ;
937 -> 939 ;
940 [label="gini = 0.0\nsamples = 4\nvalue = [0, 4]"] ;
939 -> 940 ;
941 [label="gini = 0.375\nsamples = 4\nvalue = [1, 3]"] ;
939 -> 941 ;
942 [label="gini = 0.0\nsamples = 1\nvalue = [1, 0]"] ;
936 -> 942 ;
943 [label="X[2] <= 24.5\ngini = 0.5\nsamples = 16\nvalue = [8, 8]"] ;
873 -> 943 ;
944 [label="X[2] <= 22.5\ngini = 0.375\nsamples = 4\nvalue = [3, 1]"] ;
943 -> 944 ;
945 [label="gini = 0.0\nsamples = 1\nvalue = [1, 0]"] ;
944 -> 945 ;
946 [label="gini = 0.4444\nsamples = 3\nvalue = [2, 1]"] ;
944 -> 946 ;
947 [label="X[2] <= 25.5\ngini = 0.4861\nsamples = 12\nvalue = [5, 7]"] ;
943 -> 947 ;
948 [label="gini = 0.2778\nsamples = 6\nvalue = [1, 5]"] ;
947 -> 948 ;
949 [label="X[2] <= 29.0\ngini = 0.4444\nsamples = 6\nvalue = [4, 2]"] ;
947 -> 949 ;
950 [label="gini = 0.48\nsamples = 5\nvalue = [3, 2]"] ;
949 -> 950 ;
951 [label="gini = 0.0\nsamples = 1\nvalue = [1, 0]"] ;
949 -> 951 ;
952 [label="X[3] <= 26.0\ngini = 0.32\nsamples = 5\nvalue = [4, 1]"] ;
872 -> 952 ;
953 [label="gini = 0.0\nsamples = 4\nvalue = [4, 0]"] ;
952 -> 953 ;
954 [label="gini = 0.0\nsamples = 1\nvalue = [0, 1]"] ;
952 -> 954 ;
955 [label="gini = 0.0\nsamples = 5\nvalue = [0, 5]"] ;
871 -> 955 ;
956 [label="X[3] <= 32.5\ngini = 0.1588\nsamples = 23\nvalue = [2, 21]"] ;
870 -> 956 ;
957 [label="gini = 0.0\nsamples = 20\nvalue = [0, 20]"] ;
956 -> 957 ;
958 [label="X[3] <= 35.0\ngini = 0.4444\nsamples = 3\nvalue = [2, 1]"] ;
956 -> 958 ;
959 [label="gini = 0.0\nsamples = 1\nvalue = [1, 0]"] ;
958 -> 959 ;
960 [label="gini = 0.5\nsamples = 2\nvalue = [1, 1]"] ;
958 -> 960 ;
961 [label="X[0] <= 2.5\ngini = 0.4129\nsamples = 13591\nvalue = [9632, 3959]"] ;
1 -> 961 ;
962 [label="X[1] <= 0.5\ngini = 0.0852\nsamples = 3613\nvalue = [3452, 161]"] ;
961 -> 962 ;
963 [label="X[3] <= 26.5\ngini = 0.1717\nsamples = 812\nvalue = [735, 77]"] ;
962 -> 963 ;
964 [label="X[2] <= 30.5\ngini = 0.1388\nsamples = 440\nvalue = [407, 33]"] ;
963 -> 964 ;
965 [label="X[3] <= 20.5\ngini = 0.1923\nsamples = 297\nvalue = [265, 32]"] ;
964 -> 965 ;
966 [label="X[3] <= 15.5\ngini = 0.3018\nsamples = 81\nvalue = [66, 15]"] ;
965 -> 966 ;
967 [label="gini = 0.0\nsamples = 17\nvalue = [17, 0]"] ;
966 -> 967 ;
968 [label="X[3] <= 18.5\ngini = 0.3589\nsamples = 64\nvalue = [49, 15]"] ;
966 -> 968 ;
969 [label="X[2] <= 27.5\ngini = 0.3249\nsamples = 49\nvalue = [39, 10]"] ;
968 -> 969 ;
970 [label="X[2] <= 16.5\ngini = 0.1172\nsamples = 16\nvalue = [15, 1]"] ;
969 -> 970 ;
971 [label="X[3] <= 17.0\ngini = 0.32\nsamples = 5\nvalue = [4, 1]"] ;
970 -> 971 ;
972 [label="gini = 0.4444\nsamples = 3\nvalue = [2, 1]"] ;
971 -> 972 ;
973 [label="gini = 0.0\nsamples = 2\nvalue = [2, 0]"] ;
971 -> 973 ;
974 [label="gini = 0.0\nsamples = 11\nvalue = [11, 0]"] ;
970 -> 974 ;
975 [label="X[2] <= 29.5\ngini = 0.3967\nsamples = 33\nvalue = [24, 9]"] ;
969 -> 975 ;
976 [label="gini = 0.0\nsamples = 1\nvalue = [0, 1]"] ;
975 -> 976 ;
977 [label="gini = 0.375\nsamples = 32\nvalue = [24, 8]"] ;
975 -> 977 ;
978 [label="X[2] <= 26.5\ngini = 0.4444\nsamples = 15\nvalue = [10, 5]"] ;
968 -> 978 ;
979 [label="gini = 0.0\nsamples = 4\nvalue = [0, 4]"] ;
978 -> 979 ;
980 [label="X[2] <= 29.5\ngini = 0.1653\nsamples = 11\nvalue = [10, 1]"] ;
978 -> 980 ;
981 [label="gini = 0.0\nsamples = 7\nvalue = [7, 0]"] ;
980 -> 981 ;
982 [label="gini = 0.375\nsamples = 4\nvalue = [3, 1]"] ;
980 -> 982 ;
983 [label="X[3] <= 23.5\ngini = 0.145\nsamples = 216\nvalue = [199, 17]"] ;
965 -> 983 ;
984 [label="gini = 0.0\nsamples = 26\nvalue = [26, 0]"] ;
983 -> 984 ;
985 [label="X[2] <= 26.5\ngini = 0.1629\nsamples = 190\nvalue = [173, 17]"] ;
983 -> 985 ;
986 [label="X[2] <= 16.5\ngini = 0.1404\nsamples = 158\nvalue = [146, 12]"] ;
985 -> 986 ;
987 [label="X[3] <= 25.5\ngini = 0.2188\nsamples = 24\nvalue = [21, 3]"] ;
986 -> 987 ;
988 [label="X[2] <= 15.5\ngini = 0.0868\nsamples = 22\nvalue = [21, 1]"] ;
987 -> 988 ;
989 [label="gini = 0.1327\nsamples = 14\nvalue = [13, 1]"] ;
988 -> 989 ;
990 [label="gini = 0.0\nsamples = 8\nvalue = [8, 0]"] ;
988 -> 990 ;
991 [label="gini = 0.0\nsamples = 2\nvalue = [0, 2]"] ;
987 -> 991 ;
992 [label="X[2] <= 23.5\ngini = 0.1253\nsamples = 134\nvalue = [125, 9]"] ;
986 -> 992 ;
993 [label="gini = 0.0\nsamples = 25\nvalue = [25, 0]"] ;
992 -> 993 ;
994 [label="X[2] <= 25.5\ngini = 0.1515\nsamples = 109\nvalue = [100, 9]"] ;
992 -> 994 ;
995 [label="X[3] <= 24.5\ngini = 0.1774\nsamples = 61\nvalue = [55, 6]"] ;
994 -> 995 ;
996 [label="X[2] <= 24.5\ngini = 0.48\nsamples = 5\nvalue = [3, 2]"] ;
995 -> 996 ;
997 [label="gini = 0.0\nsamples = 1\nvalue = [0, 1]"] ;
996 -> 997 ;
998 [label="gini = 0.375\nsamples = 4\nvalue = [3, 1]"] ;
996 -> 998 ;
999 [label="X[2] <= 24.5\ngini = 0.1327\nsamples = 56\nvalue = [52, 4]"] ;
995 -> 999 ;
1000 [label="X[3] <= 25.5\ngini = 0.1372\nsamples = 54\nvalue = [50, 4]"] ;
999 -> 1000 ;
1001 [label="gini = 0.1528\nsamples = 24\nvalue = [22, 2]"] ;
1000 -> 1001 ;
1002 [label="gini = 0.1244\nsamples = 30\nvalue = [28, 2]"] ;
1000 -> 1002 ;
1003 [label="gini = 0.0\nsamples = 2\nvalue = [2, 0]"] ;
999 -> 1003 ;
1004 [label="X[3] <= 24.5\ngini = 0.1172\nsamples = 48\nvalue = [45, 3]"] ;
994 -> 1004 ;
1005 [label="gini = 0.0\nsamples = 29\nvalue = [29, 0]"] ;
1004 -> 1005 ;
1006 [label="X[3] <= 25.5\ngini = 0.2659\nsamples = 19\nvalue = [16, 3]"] ;
1004 -> 1006 ;
1007 [label="gini = 0.2778\nsamples = 18\nvalue = [15, 3]"] ;
1006 -> 1007 ;
1008 [label="gini = 0.0\nsamples = 1\nvalue = [1, 0]"] ;
1006 -> 1008 ;
1009 [label="X[2] <= 28.0\ngini = 0.2637\nsamples = 32\nvalue = [27, 5]"] ;
985 -> 1009 ;
1010 [label="X[3] <= 24.5\ngini = 0.4444\nsamples = 3\nvalue = [2, 1]"] ;
1009 -> 1010 ;
1011 [label="gini = 0.0\nsamples = 1\nvalue = [1, 0]"] ;
1010 -> 1011 ;
1012 [label="X[3] <= 25.5\ngini = 0.5\nsamples = 2\nvalue = [1, 1]"] ;
1010 -> 1012 ;
1013 [label="gini = 0.0\nsamples = 1\nvalue = [0, 1]"] ;
1012 -> 1013 ;
1014 [label="gini = 0.0\nsamples = 1\nvalue = [1, 0]"] ;
1012 -> 1014 ;
1015 [label="X[3] <= 24.5\ngini = 0.2378\nsamples = 29\nvalue = [25, 4]"] ;
1009 -> 1015 ;
1016 [label="X[2] <= 29.5\ngini = 0.2778\nsamples = 6\nvalue = [5, 1]"] ;
1015 -> 1016 ;
1017 [label="gini = 0.5\nsamples = 2\nvalue = [1, 1]"] ;
1016 -> 1017 ;
1018 [label="gini = 0.0\nsamples = 4\nvalue = [4, 0]"] ;
1016 -> 1018 ;
1019 [label="X[2] <= 29.5\ngini = 0.2268\nsamples = 23\nvalue = [20, 3]"] ;
1015 -> 1019 ;
1020 [label="gini = 0.0\nsamples = 6\nvalue = [6, 0]"] ;
1019 -> 1020 ;
1021 [label="X[3] <= 25.5\ngini = 0.2907\nsamples = 17\nvalue = [14, 3]"] ;
1019 -> 1021 ;
1022 [label="gini = 0.1975\nsamples = 9\nvalue = [8, 1]"] ;
1021 -> 1022 ;
1023 [label="gini = 0.375\nsamples = 8\nvalue = [6, 2]"] ;
1021 -> 1023 ;
1024 [label="X[3] <= 24.5\ngini = 0.0139\nsamples = 143\nvalue = [142, 1]"] ;
964 -> 1024 ;
1025 [label="gini = 0.0\nsamples = 91\nvalue = [91, 0]"] ;
1024 -> 1025 ;
1026 [label="X[3] <= 25.5\ngini = 0.0377\nsamples = 52\nvalue = [51, 1]"] ;
1024 -> 1026 ;
1027 [label="X[2] <= 36.5\ngini = 0.0689\nsamples = 28\nvalue = [27, 1]"] ;
1026 -> 1027 ;
1028 [label="gini = 0.0\nsamples = 9\nvalue = [9, 0]"] ;
1027 -> 1028 ;
1029 [label="gini = 0.0997\nsamples = 19\nvalue = [18, 1]"] ;
1027 -> 1029 ;
1030 [label="gini = 0.0\nsamples = 24\nvalue = [24, 0]"] ;
1026 -> 1030 ;
1031 [label="X[3] <= 28.5\ngini = 0.2086\nsamples = 372\nvalue = [328, 44]"] ;
963 -> 1031 ;
1032 [label="X[2] <= 22.5\ngini = 0.2688\nsamples = 225\nvalue = [189, 36]"] ;
1031 -> 1032 ;
1033 [label="X[2] <= 21.0\ngini = 0.4321\nsamples = 19\nvalue = [13, 6]"] ;
1032 -> 1033 ;
1034 [label="X[3] <= 27.5\ngini = 0.3047\nsamples = 16\nvalue = [13, 3]"] ;
1033 -> 1034 ;
1035 [label="X[2] <= 15.5\ngini = 0.1528\nsamples = 12\nvalue = [11, 1]"] ;
1034 -> 1035 ;
1036 [label="gini = 0.5\nsamples = 2\nvalue = [1, 1]"] ;
1035 -> 1036 ;
1037 [label="gini = 0.0\nsamples = 10\nvalue = [10, 0]"] ;
1035 -> 1037 ;
1038 [label="X[2] <= 16.5\ngini = 0.5\nsamples = 4\nvalue = [2, 2]"] ;
1034 -> 1038 ;
1039 [label="gini = 0.0\nsamples = 2\nvalue = [2, 0]"] ;
1038 -> 1039 ;
1040 [label="gini = 0.0\nsamples = 2\nvalue = [0, 2]"] ;
1038 -> 1040 ;
1041 [label="gini = 0.0\nsamples = 3\nvalue = [0, 3]"] ;
1033 -> 1041 ;
1042 [label="X[2] <= 24.5\ngini = 0.2488\nsamples = 206\nvalue = [176, 30]"] ;
1032 -> 1042 ;
1043 [label="gini = 0.0\nsamples = 47\nvalue = [47, 0]"] ;
1042 -> 1043 ;
1044 [label="X[2] <= 37.0\ngini = 0.3062\nsamples = 159\nvalue = [129, 30]"] ;
1042 -> 1044 ;
1045 [label="X[2] <= 32.5\ngini = 0.4654\nsamples = 19\nvalue = [12, 7]"] ;
1044 -> 1045 ;
1046 [label="X[2] <= 28.0\ngini = 0.32\nsamples = 15\nvalue = [12, 3]"] ;
1045 -> 1046 ;
1047 [label="X[2] <= 25.5\ngini = 0.375\nsamples = 12\nvalue = [9, 3]"] ;
1046 -> 1047 ;
1048 [label="gini = 0.4444\nsamples = 3\nvalue = [2, 1]"] ;
1047 -> 1048 ;
1049 [label="gini = 0.3457\nsamples = 9\nvalue = [7, 2]"] ;
1047 -> 1049 ;
1050 [label="gini = 0.0\nsamples = 3\nvalue = [3, 0]"] ;
1046 -> 1050 ;
1051 [label="gini = 0.0\nsamples = 4\nvalue = [0, 4]"] ;
1045 -> 1051 ;
1052 [label="gini = 0.2746\nsamples = 140\nvalue = [117, 23]"] ;
1044 -> 1052 ;
1053 [label="X[3] <= 33.5\ngini = 0.1029\nsamples = 147\nvalue = [139, 8]"] ;
1031 -> 1053 ;
1054 [label="X[3] <= 30.5\ngini = 0.0531\nsamples = 110\nvalue = [107, 3]"] ;
1053 -> 1054 ;
1055 [label="X[2] <= 29.5\ngini = 0.0981\nsamples = 58\nvalue = [55, 3]"] ;
1054 -> 1055 ;
1056 [label="X[2] <= 28.0\ngini = 0.1975\nsamples = 27\nvalue = [24, 3]"] ;
1055 -> 1056 ;
1057 [label="X[2] <= 23.5\ngini = 0.0832\nsamples = 23\nvalue = [22, 1]"] ;
1056 -> 1057 ;
1058 [label="gini = 0.0\nsamples = 11\nvalue = [11, 0]"] ;
1057 -> 1058 ;
1059 [label="X[2] <= 24.5\ngini = 0.1528\nsamples = 12\nvalue = [11, 1]"] ;
1057 -> 1059 ;
1060 [label="X[3] <= 29.5\ngini = 0.2188\nsamples = 8\nvalue = [7, 1]"] ;
1059 -> 1060 ;
1061 [label="gini = 0.0\nsamples = 2\nvalue = [2, 0]"] ;
1060 -> 1061 ;
1062 [label="gini = 0.2778\nsamples = 6\nvalue = [5, 1]"] ;
1060 -> 1062 ;
1063 [label="gini = 0.0\nsamples = 4\nvalue = [4, 0]"] ;
1059 -> 1063 ;
1064 [label="gini = 0.5\nsamples = 4\nvalue = [2, 2]"] ;
1056 -> 1064 ;
1065 [label="gini = 0.0\nsamples = 31\nvalue = [31, 0]"] ;
1055 -> 1065 ;
1066 [label="gini = 0.0\nsamples = 52\nvalue = [52, 0]"] ;
1054 -> 1066 ;
1067 [label="X[2] <= 25.5\ngini = 0.2337\nsamples = 37\nvalue = [32, 5]"] ;
1053 -> 1067 ;
1068 [label="X[2] <= 15.5\ngini = 0.3628\nsamples = 21\nvalue = [16, 5]"] ;
1067 -> 1068 ;
1069 [label="gini = 0.5\nsamples = 2\nvalue = [1, 1]"] ;
1068 -> 1069 ;
1070 [label="X[2] <= 19.5\ngini = 0.3324\nsamples = 19\nvalue = [15, 4]"] ;
1068 -> 1070 ;
1071 [label="gini = 0.0\nsamples = 4\nvalue = [4, 0]"] ;
1070 -> 1071 ;
1072 [label="X[2] <= 22.5\ngini = 0.3911\nsamples = 15\nvalue = [11, 4]"] ;
1070 -> 1072 ;
1073 [label="gini = 0.5\nsamples = 4\nvalue = [2, 2]"] ;
1072 -> 1073 ;
1074 [label="X[3] <= 35.5\ngini = 0.2975\nsamples = 11\nvalue = [9, 2]"] ;
1072 -> 1074 ;
1075 [label="X[2] <= 24.5\ngini = 0.375\nsamples = 8\nvalue = [6, 2]"] ;
1074 -> 1075 ;
1076 [label="gini = 0.4444\nsamples = 3\nvalue = [2, 1]"] ;
1075 -> 1076 ;
1077 [label="gini = 0.32\nsamples = 5\nvalue = [4, 1]"] ;
1075 -> 1077 ;
1078 [label="gini = 0.0\nsamples = 3\nvalue = [3, 0]"] ;
1074 -> 1078 ;
1079 [label="gini = 0.0\nsamples = 16\nvalue = [16, 0]"] ;
1067 -> 1079 ;
1080 [label="X[2] <= 24.5\ngini = 0.0582\nsamples = 2801\nvalue = [2717, 84]"] ;
962 -> 1080 ;
1081 [label="X[3] <= 33.5\ngini = 0.1008\nsamples = 958\nvalue = [907, 51]"] ;
1080 -> 1081 ;
1082 [label="X[3] <= 15.5\ngini = 0.0869\nsamples = 901\nvalue = [860, 41]"] ;
1081 -> 1082 ;
1083 [label="X[2] <= 8.5\ngini = 0.355\nsamples = 13\nvalue = [10, 3]"] ;
1082 -> 1083 ;
1084 [label="X[2] <= 6.0\ngini = 0.48\nsamples = 5\nvalue = [2, 3]"] ;
1083 -> 1084 ;
1085 [label="gini = 0.0\nsamples = 1\nvalue = [1, 0]"] ;
1084 -> 1085 ;
1086 [label="X[1] <= 1.5\ngini = 0.375\nsamples = 4\nvalue = [1, 3]"] ;
1084 -> 1086 ;
1087 [label="gini = 0.5\nsamples = 2\nvalue = [1, 1]"] ;
1086 -> 1087 ;
1088 [label="gini = 0.0\nsamples = 2\nvalue = [0, 2]"] ;
1086 -> 1088 ;
1089 [label="gini = 0.0\nsamples = 8\nvalue = [8, 0]"] ;
1083 -> 1089 ;
1090 [label="X[2] <= 14.5\ngini = 0.0819\nsamples = 888\nvalue = [850, 38]"] ;
1082 -> 1090 ;
1091 [label="X[2] <= 5.5\ngini = 0.009\nsamples = 222\nvalue = [221, 1]"] ;
1090 -> 1091 ;
1092 [label="X[3] <= 26.5\ngini = 0.0322\nsamples = 61\nvalue = [60, 1]"] ;
1091 -> 1092 ;
1093 [label="X[3] <= 25.5\ngini = 0.0666\nsamples = 29\nvalue = [28, 1]"] ;
1092 -> 1093 ;
1094 [label="gini = 0.0\nsamples = 26\nvalue = [26, 0]"] ;
1093 -> 1094 ;
1095 [label="gini = 0.4444\nsamples = 3\nvalue = [2, 1]"] ;
1093 -> 1095 ;
1096 [label="gini = 0.0\nsamples = 32\nvalue = [32, 0]"] ;
1092 -> 1096 ;
1097 [label="gini = 0.0\nsamples = 161\nvalue = [161, 0]"] ;
1091 -> 1097 ;
1098 [label="X[3] <= 17.5\ngini = 0.1049\nsamples = 666\nvalue = [629, 37]"] ;
1090 -> 1098 ;
1099 [label="X[2] <= 15.5\ngini = 0.2122\nsamples = 58\nvalue = [51, 7]"] ;
1098 -> 1099 ;
1100 [label="gini = 0.0\nsamples = 5\nvalue = [0, 5]"] ;
1099 -> 1100 ;
1101 [label="X[3] <= 16.5\ngini = 0.0726\nsamples = 53\nvalue = [51, 2]"] ;
1099 -> 1101 ;
1102 [label="X[1] <= 1.5\ngini = 0.0392\nsamples = 50\nvalue = [49, 1]"] ;
1101 -> 1102 ;
1103 [label="X[2] <= 19.0\ngini = 0.18\nsamples = 10\nvalue = [9, 1]"] ;
1102 -> 1103 ;
1104 [label="X[2] <= 17.5\ngini = 0.4444\nsamples = 3\nvalue = [2, 1]"] ;
1103 -> 1104 ;
1105 [label="gini = 0.0\nsamples = 1\nvalue = [1, 0]"] ;
1104 -> 1105 ;
1106 [label="gini = 0.5\nsamples = 2\nvalue = [1, 1]"] ;
1104 -> 1106 ;
1107 [label="gini = 0.0\nsamples = 7\nvalue = [7, 0]"] ;
1103 -> 1107 ;
1108 [label="gini = 0.0\nsamples = 40\nvalue = [40, 0]"] ;
1102 -> 1108 ;
1109 [label="X[2] <= 21.0\ngini = 0.4444\nsamples = 3\nvalue = [2, 1]"] ;
1101 -> 1109 ;
1110 [label="gini = 0.0\nsamples = 1\nvalue = [1, 0]"] ;
1109 -> 1110 ;
1111 [label="gini = 0.5\nsamples = 2\nvalue = [1, 1]"] ;
1109 -> 1111 ;
1112 [label="X[3] <= 27.5\ngini = 0.0938\nsamples = 608\nvalue = [578, 30]"] ;
1098 -> 1112 ;
1113 [label="X[3] <= 26.5\ngini = 0.0704\nsamples = 465\nvalue = [448, 17]"] ;
1112 -> 1113 ;
1114 [label="X[3] <= 25.5\ngini = 0.0931\nsamples = 286\nvalue = [272, 14]"] ;
1113 -> 1114 ;
1115 [label="X[2] <= 18.5\ngini = 0.0639\nsamples = 242\nvalue = [234, 8]"] ;
1114 -> 1115 ;
1116 [label="X[2] <= 17.5\ngini = 0.1107\nsamples = 119\nvalue = [112, 7]"] ;
1115 -> 1116 ;
1117 [label="X[1] <= 1.5\ngini = 0.027\nsamples = 73\nvalue = [72, 1]"] ;
1116 -> 1117 ;
1118 [label="X[2] <= 15.5\ngini = 0.0476\nsamples = 41\nvalue = [40, 1]"] ;
1117 -> 1118 ;
1119 [label="X[3] <= 24.5\ngini = 0.0799\nsamples = 24\nvalue = [23, 1]"] ;
1118 -> 1119 ;
1120 [label="gini = 0.0\nsamples = 11\nvalue = [11, 0]"] ;
1119 -> 1120 ;
1121 [label="gini = 0.142\nsamples = 13\nvalue = [12, 1]"] ;
1119 -> 1121 ;
1122 [label="gini = 0.0\nsamples = 17\nvalue = [17, 0]"] ;
1118 -> 1122 ;
1123 [label="gini = 0.0\nsamples = 32\nvalue = [32, 0]"] ;
1117 -> 1123 ;
1124 [label="X[1] <= 1.5\ngini = 0.2268\nsamples = 46\nvalue = [40, 6]"] ;
1116 -> 1124 ;
1125 [label="X[3] <= 24.5\ngini = 0.1139\nsamples = 33\nvalue = [31, 2]"] ;
1124 -> 1125 ;
1126 [label="gini = 0.0\nsamples = 15\nvalue = [15, 0]"] ;
1125 -> 1126 ;
1127 [label="gini = 0.1975\nsamples = 18\nvalue = [16, 2]"] ;
1125 -> 1127 ;
1128 [label="X[3] <= 22.0\ngini = 0.426\nsamples = 13\nvalue = [9, 4]"] ;
1124 -> 1128 ;
1129 [label="gini = 0.0\nsamples = 3\nvalue = [3, 0]"] ;
1128 -> 1129 ;
1130 [label="X[3] <= 24.5\ngini = 0.48\nsamples = 10\nvalue = [6, 4]"] ;
1128 -> 1130 ;
1131 [label="gini = 0.5\nsamples = 8\nvalue = [4, 4]"] ;
1130 -> 1131 ;
1132 [label="gini = 0.0\nsamples = 2\nvalue = [2, 0]"] ;
1130 -> 1132 ;
1133 [label="X[3] <= 21.5\ngini = 0.0161\nsamples = 123\nvalue = [122, 1]"] ;
1115 -> 1133 ;
1134 [label="X[2] <= 21.5\ngini = 0.0713\nsamples = 27\nvalue = [26, 1]"] ;
1133 -> 1134 ;
1135 [label="X[3] <= 19.5\ngini = 0.2449\nsamples = 7\nvalue = [6, 1]"] ;
1134 -> 1135 ;
1136 [label="gini = 0.0\nsamples = 5\nvalue = [5, 0]"] ;
1135 -> 1136 ;
1137 [label="X[2] <= 20.5\ngini = 0.5\nsamples = 2\nvalue = [1, 1]"] ;
1135 -> 1137 ;
1138 [label="gini = 0.0\nsamples = 1\nvalue = [1, 0]"] ;
1137 -> 1138 ;
1139 [label="gini = 0.0\nsamples = 1\nvalue = [0, 1]"] ;
1137 -> 1139 ;
1140 [label="gini = 0.0\nsamples = 20\nvalue = [20, 0]"] ;
1134 -> 1140 ;
1141 [label="gini = 0.0\nsamples = 96\nvalue = [96, 0]"] ;
1133 -> 1141 ;
1142 [label="X[2] <= 23.5\ngini = 0.2355\nsamples = 44\nvalue = [38, 6]"] ;
1114 -> 1142 ;
1143 [label="gini = 0.0\nsamples = 23\nvalue = [23, 0]"] ;
1142 -> 1143 ;
1144 [label="X[1] <= 1.5\ngini = 0.4082\nsamples = 21\nvalue = [15, 6]"] ;
1142 -> 1144 ;
1145 [label="gini = 0.4321\nsamples = 19\nvalue = [13, 6]"] ;
1144 -> 1145 ;
1146 [label="gini = 0.0\nsamples = 2\nvalue = [2, 0]"] ;
1144 -> 1146 ;
1147 [label="X[2] <= 15.5\ngini = 0.033\nsamples = 179\nvalue = [176, 3]"] ;
1113 -> 1147 ;
1148 [label="X[1] <= 1.5\ngini = 0.1172\nsamples = 16\nvalue = [15, 1]"] ;
1147 -> 1148 ;
1149 [label="gini = 0.0\nsamples = 10\nvalue = [10, 0]"] ;
1148 -> 1149 ;
1150 [label="gini = 0.2778\nsamples = 6\nvalue = [5, 1]"] ;
1148 -> 1150 ;
1151 [label="X[1] <= 1.5\ngini = 0.0242\nsamples = 163\nvalue = [161, 2]"] ;
1147 -> 1151 ;
1152 [label="X[2] <= 20.5\ngini = 0.0396\nsamples = 99\nvalue = [97, 2]"] ;
1151 -> 1152 ;
1153 [label="gini = 0.0\nsamples = 25\nvalue = [25, 0]"] ;
1152 -> 1153 ;
1154 [label="X[2] <= 21.5\ngini = 0.0526\nsamples = 74\nvalue = [72, 2]"] ;
1152 -> 1154 ;
1155 [label="gini = 0.1049\nsamples = 18\nvalue = [17, 1]"] ;
1154 -> 1155 ;
1156 [label="X[2] <= 23.5\ngini = 0.0351\nsamples = 56\nvalue = [55, 1]"] ;
1154 -> 1156 ;
1157 [label="gini = 0.0\nsamples = 8\nvalue = [8, 0]"] ;
1156 -> 1157 ;
1158 [label="gini = 0.0408\nsamples = 48\nvalue = [47, 1]"] ;
1156 -> 1158 ;
1159 [label="gini = 0.0\nsamples = 64\nvalue = [64, 0]"] ;
1151 -> 1159 ;
1160 [label="X[3] <= 28.5\ngini = 0.1653\nsamples = 143\nvalue = [130, 13]"] ;
1112 -> 1160 ;
1161 [label="X[2] <= 21.5\ngini = 0.32\nsamples = 5\nvalue = [1, 4]"] ;
1160 -> 1161 ;
1162 [label="gini = 0.0\nsamples = 4\nvalue = [0, 4]"] ;
1161 -> 1162 ;
1163 [label="gini = 0.0\nsamples = 1\nvalue = [1, 0]"] ;
1161 -> 1163 ;
1164 [label="X[2] <= 22.0\ngini = 0.1219\nsamples = 138\nvalue = [129, 9]"] ;
1160 -> 1164 ;
1165 [label="X[3] <= 31.0\ngini = 0.0392\nsamples = 100\nvalue = [98, 2]"] ;
1164 -> 1165 ;
1166 [label="X[1] <= 1.5\ngini = 0.0973\nsamples = 39\nvalue = [37, 2]"] ;
1165 -> 1166 ;
1167 [label="X[2] <= 19.0\ngini = 0.1588\nsamples = 23\nvalue = [21, 2]"] ;
1166 -> 1167 ;
1168 [label="X[2] <= 15.5\ngini = 0.2311\nsamples = 15\nvalue = [13, 2]"] ;
1167 -> 1168 ;
1169 [label="gini = 0.0\nsamples = 6\nvalue = [6, 0]"] ;
1168 -> 1169 ;
1170 [label="X[2] <= 17.0\ngini = 0.3457\nsamples = 9\nvalue = [7, 2]"] ;
1168 -> 1170 ;
1171 [label="gini = 0.375\nsamples = 4\nvalue = [3, 1]"] ;
1170 -> 1171 ;
1172 [label="gini = 0.32\nsamples = 5\nvalue = [4, 1]"] ;
1170 -> 1172 ;
1173 [label="gini = 0.0\nsamples = 8\nvalue = [8, 0]"] ;
1167 -> 1173 ;
1174 [label="gini = 0.0\nsamples = 16\nvalue = [16, 0]"] ;
1166 -> 1174 ;
1175 [label="gini = 0.0\nsamples = 61\nvalue = [61, 0]"] ;
1165 -> 1175 ;
1176 [label="X[2] <= 23.5\ngini = 0.3006\nsamples = 38\nvalue = [31, 7]"] ;
1164 -> 1176 ;
1177 [label="X[3] <= 31.0\ngini = 0.4861\nsamples = 12\nvalue = [7, 5]"] ;
1176 -> 1177 ;
1178 [label="X[1] <= 1.5\ngini = 0.4082\nsamples = 7\nvalue = [2, 5]"] ;
1177 -> 1178 ;
1179 [label="gini = 0.375\nsamples = 4\nvalue = [1, 3]"] ;
1178 -> 1179 ;
1180 [label="gini = 0.4444\nsamples = 3\nvalue = [1, 2]"] ;
1178 -> 1180 ;
1181 [label="gini = 0.0\nsamples = 5\nvalue = [5, 0]"] ;
1177 -> 1181 ;
1182 [label="X[1] <= 1.5\ngini = 0.142\nsamples = 26\nvalue = [24, 2]"] ;
1176 -> 1182 ;
1183 [label="gini = 0.0\nsamples = 14\nvalue = [14, 0]"] ;
1182 -> 1183 ;
1184 [label="X[3] <= 30.5\ngini = 0.2778\nsamples = 12\nvalue = [10, 2]"] ;
1182 -> 1184 ;
1185 [label="gini = 0.0\nsamples = 6\nvalue = [6, 0]"] ;
1184 -> 1185 ;
1186 [label="X[3] <= 31.5\ngini = 0.4444\nsamples = 6\nvalue = [4, 2]"] ;
1184 -> 1186 ;
1187 [label="gini = 0.0\nsamples = 2\nvalue = [0, 2]"] ;
1186 -> 1187 ;
1188 [label="gini = 0.0\nsamples = 4\nvalue = [4, 0]"] ;
1186 -> 1188 ;
1189 [label="X[2] <= 23.5\ngini = 0.2893\nsamples = 57\nvalue = [47, 10]"] ;
1081 -> 1189 ;
1190 [label="X[2] <= 20.5\ngini = 0.0997\nsamples = 38\nvalue = [36, 2]"] ;
1189 -> 1190 ;
1191 [label="gini = 0.0\nsamples = 28\nvalue = [28, 0]"] ;
1190 -> 1191 ;
1192 [label="X[3] <= 34.5\ngini = 0.32\nsamples = 10\nvalue = [8, 2]"] ;
1190 -> 1192 ;
1193 [label="X[1] <= 1.5\ngini = 0.5\nsamples = 4\nvalue = [2, 2]"] ;
1192 -> 1193 ;
1194 [label="gini = 0.0\nsamples = 2\nvalue = [0, 2]"] ;
1193 -> 1194 ;
1195 [label="gini = 0.0\nsamples = 2\nvalue = [2, 0]"] ;
1193 -> 1195 ;
1196 [label="gini = 0.0\nsamples = 6\nvalue = [6, 0]"] ;
1192 -> 1196 ;
1197 [label="X[3] <= 35.5\ngini = 0.4875\nsamples = 19\nvalue = [11, 8]"] ;
1189 -> 1197 ;
1198 [label="X[1] <= 1.5\ngini = 0.4938\nsamples = 18\nvalue = [10, 8]"] ;
1197 -> 1198 ;
1199 [label="gini = 0.4938\nsamples = 9\nvalue = [5, 4]"] ;
1198 -> 1199 ;
1200 [label="gini = 0.4938\nsamples = 9\nvalue = [5, 4]"] ;
1198 -> 1200 ;
1201 [label="gini = 0.0\nsamples = 1\nvalue = [1, 0]"] ;
1197 -> 1201 ;
1202 [label="X[3] <= 23.5\ngini = 0.0352\nsamples = 1843\nvalue = [1810, 33]"] ;
1080 -> 1202 ;
1203 [label="X[3] <= 15.5\ngini = 0.0081\nsamples = 494\nvalue = [492, 2]"] ;
1202 -> 1203 ;
1204 [label="X[2] <= 25.5\ngini = 0.0384\nsamples = 51\nvalue = [50, 1]"] ;
1203 -> 1204 ;
1205 [label="X[1] <= 1.5\ngini = 0.1528\nsamples = 12\nvalue = [11, 1]"] ;
1204 -> 1205 ;
1206 [label="gini = 0.2449\nsamples = 7\nvalue = [6, 1]"] ;
1205 -> 1206 ;
1207 [label="gini = 0.0\nsamples = 5\nvalue = [5, 0]"] ;
1205 -> 1207 ;
1208 [label="gini = 0.0\nsamples = 39\nvalue = [39, 0]"] ;
1204 -> 1208 ;
1209 [label="X[2] <= 31.5\ngini = 0.0045\nsamples = 443\nvalue = [442, 1]"] ;
1203 -> 1209 ;
1210 [label="gini = 0.0\nsamples = 306\nvalue = [306, 0]"] ;
1209 -> 1210 ;
1211 [label="X[1] <= 1.5\ngini = 0.0145\nsamples = 137\nvalue = [136, 1]"] ;
1209 -> 1211 ;
1212 [label="X[3] <= 17.5\ngini = 0.0364\nsamples = 54\nvalue = [53, 1]"] ;
1211 -> 1212 ;
1213 [label="X[3] <= 16.5\ngini = 0.18\nsamples = 10\nvalue = [9, 1]"] ;
1212 -> 1213 ;
1214 [label="gini = 0.0\nsamples = 6\nvalue = [6, 0]"] ;
1213 -> 1214 ;
1215 [label="X[2] <= 33.0\ngini = 0.375\nsamples = 4\nvalue = [3, 1]"] ;
1213 -> 1215 ;
1216 [label="gini = 0.4444\nsamples = 3\nvalue = [2, 1]"] ;
1215 -> 1216 ;
1217 [label="gini = 0.0\nsamples = 1\nvalue = [1, 0]"] ;
1215 -> 1217 ;
1218 [label="gini = 0.0\nsamples = 44\nvalue = [44, 0]"] ;
1212 -> 1218 ;
1219 [label="gini = 0.0\nsamples = 83\nvalue = [83, 0]"] ;
1211 -> 1219 ;
1220 [label="X[3] <= 24.5\ngini = 0.0449\nsamples = 1349\nvalue = [1318, 31]"] ;
1202 -> 1220 ;
1221 [label="X[2] <= 26.5\ngini = 0.2361\nsamples = 117\nvalue = [101, 16]"] ;
1220 -> 1221 ;
1222 [label="gini = 0.0\nsamples = 31\nvalue = [31, 0]"] ;
1221 -> 1222 ;
1223 [label="X[2] <= 29.5\ngini = 0.3029\nsamples = 86\nvalue = [70, 16]"] ;
1221 -> 1223 ;
1224 [label="X[2] <= 28.0\ngini = 0.4654\nsamples = 38\nvalue = [24, 14]"] ;
1223 -> 1224 ;
1225 [label="X[1] <= 1.5\ngini = 0.2188\nsamples = 8\nvalue = [7, 1]"] ;
1224 -> 1225 ;
1226 [label="gini = 0.2778\nsamples = 6\nvalue = [5, 1]"] ;
1225 -> 1226 ;
1227 [label="gini = 0.0\nsamples = 2\nvalue = [2, 0]"] ;
1225 -> 1227 ;
1228 [label="X[1] <= 1.5\ngini = 0.4911\nsamples = 30\nvalue = [17, 13]"] ;
1224 -> 1228 ;
1229 [label="gini = 0.4444\nsamples = 18\nvalue = [12, 6]"] ;
1228 -> 1229 ;
1230 [label="gini = 0.4861\nsamples = 12\nvalue = [5, 7]"] ;
1228 -> 1230 ;
1231 [label="X[2] <= 31.0\ngini = 0.0799\nsamples = 48\nvalue = [46, 2]"] ;
1223 -> 1231 ;
